{"learner":{"attributes":{"best_iteration":"219","best_ntree_limit":"220","scikit_learn":"{\"use_label_encoder\": null, \"n_estimators\": 220, \"objective\": \"binary:logistic\", \"max_depth\": 9, \"max_leaves\": null, \"max_bin\": null, \"grow_policy\": null, \"learning_rate\": 0.06, \"verbosity\": null, \"booster\": null, \"tree_method\": null, \"gamma\": null, \"min_child_weight\": null, \"max_delta_step\": null, \"subsample\": null, \"sampling_method\": null, \"colsample_bytree\": 0.5, \"colsample_bylevel\": null, \"colsample_bynode\": null, \"reg_alpha\": null, \"reg_lambda\": null, \"scale_pos_weight\": 6.331950207468879, \"base_score\": null, \"missing\": NaN, \"num_parallel_tree\": null, \"random_state\": null, \"n_jobs\": null, \"monotone_constraints\": null, \"interaction_constraints\": null, \"importance_type\": null, \"gpu_id\": null, \"validate_parameters\": null, \"predictor\": null, \"enable_categorical\": false, \"feature_types\": null, \"max_cat_to_onehot\": null, \"max_cat_threshold\": null, \"eval_metric\": null, \"early_stopping_rounds\": null, \"callbacks\": null, \"classes_\": [0.0, 1.0], \"n_classes_\": 2, \"_estimator_type\": \"classifier\"}"},"feature_names":["BUN_mean","BaseExcess_mean","Calcium_mean","Chloride_mean","Creatinine_mean","DBP_mean","FiO2_mean","Glucose_mean","HCO3_mean","HR_mean","Hct_mean","Hgb_mean","MAP_mean","Magnesium_mean","O2Sat_mean","PTT_mean","PaCO2_mean","Phosphate_mean","Platelets_mean","Potassium_mean","Resp_mean","SBP_mean","Temp_mean","WBC_mean","pH_mean","BUN_diff","BaseExcess_diff","Calcium_diff","Chloride_diff","Creatinine_diff","DBP_diff","FiO2_diff","Glucose_diff","HCO3_diff","HR_diff","Hct_diff","Hgb_diff","MAP_diff","Magnesium_diff","O2Sat_diff","PTT_diff","PaCO2_diff","Phosphate_diff","Platelets_diff","Potassium_diff","Resp_diff","SBP_diff","Temp_diff","WBC_diff","pH_diff","ID","Gender","Age","SaO2_mean","SaO2_diff","AST_mean","Alkalinephos_mean","Bilirubin_total_mean","Lactate_mean","AST_diff","Alkalinephos_diff","Bilirubin_total_diff","Lactate_diff"],"feature_types":["float","float","float","float","float","float","float","float","float","float","float","float","float","float","float","float","float","float","float","float","float","float","float","float","float","float","float","float","float","float","float","float","float","float","float","float","float","float","float","float","float","float","float","float","float","float","float","float","float","float","int","int","float","float","float","float","float","float","float","float","float","float","float"],"gradient_booster":{"model":{"gbtree_model_param":{"num_parallel_tree":"1","num_trees":"220","size_leaf_vector":"0"},"tree_info":[0,0,0,0,0,0,0,0,0,0,0,0,0,0,0,0,0,0,0,0,0,0,0,0,0,0,0,0,0,0,0,0,0,0,0,0,0,0,0,0,0,0,0,0,0,0,0,0,0,0,0,0,0,0,0,0,0,0,0,0,0,0,0,0,0,0,0,0,0,0,0,0,0,0,0,0,0,0,0,0,0,0,0,0,0,0,0,0,0,0,0,0,0,0,0,0,0,0,0,0,0,0,0,0,0,0,0,0,0,0,0,0,0,0,0,0,0,0,0,0,0,0,0,0,0,0,0,0,0,0,0,0,0,0,0,0,0,0,0,0,0,0,0,0,0,0,0,0,0,0,0,0,0,0,0,0,0,0,0,0,0,0,0,0,0,0,0,0,0,0,0,0,0,0,0,0,0,0,0,0,0,0,0,0,0,0,0,0,0,0,0,0,0,0,0,0,0,0,0,0,0,0,0,0,0,0,0,0,0,0,0,0,0,0,0,0,0,0,0,0],"trees":[{"base_weights":[-3.1240697E-9,-4.962878E-1,7.7878183E-1,1.5222963E0,-7.705407E-1,4.698769E-1,1.4177183E0,1.5999215E0,-4.446323E-1,-9.5745854E-2,-1.074331E0,1.3816066E0,3.0289644E-1,5.849921E-1,1.6219726E0,1.8810023E0,1.2133322E0,-1.75E0,1.2306465E0,-3.519469E-1,1.3379889E0,-1.2591338E0,-3.7148452E-1,1.5170813E0,-3.9040312E-2,7.570568E-1,-2.323879E-2,-8.888344E-2,1.0930474E0,1.0155697E0,1.7324296E0,1.9012587E0,3.254198E-1,-6.8673354E-1,1.3691252E0,1.5199203E0,4.9984437E-1,-7.9737204E-1,1.4712904E-1,7.1321493E-1,1.6489013E0,-1.4065162E0,-4.6174398E-1,-7.1997464E-1,4.4147345E-1,1.6512128E0,6.574383E-1,-1.7142857E0,1.0147728E0,5.0521845E-1,1.1216612E0,3.08278E-1,-7.117028E-1,4.2479575E-1,-1.8297873E0,1.2399724E0,-1.5E0,1.6492803E-1,1.478163E0,6.449799E-1,1.757236E0,7.025572E-1,1.9112155E0,-1E0,1.2257028E0,-1.75E0,1.5199203E0,1.6427865E0,8.328498E-1,9.520808E-2,-1.0888413E0,1.5595492E0,9.85047E-3,7.011233E-3,1.563554E0,3.254198E-1,1.690521E0,-1.6970515E-1,-1.4911085E0,-7.0258754E-1,7.712465E-1,-1.0365446E0,5.392743E-1,-7.1757513E-1,1.2920992E0,1.7484753E0,9.498366E-1,-1.6190476E0,1.2129809E0,-1.2E0,1.4826661E0,-4.3400195E-1,6.264703E-1,7.460823E-1,1.4574628E0,8.1990205E-2,8.887147E-1,1.1051166E0,-9.045942E-1,-4.4634905E-1,1.3791993E0,-1.3846154E0,1.3596648E0,-1.6923077E0,7.1245944E-1,1.571346E0,-1.1111112E0,-1.3333334E0,1.2798805E0,1.7814298E0,9.6280354E-1,1.7830881E0,9.2615163E-1,1.5678775E-1,1.5453688E0,-7.201806E-1,5.540181E-1,3.3675024E-1,-1.2744387E0,1.675612E0,3.254198E-1,-1.2562066E-1,1.4304043E0,-1.7333333E0,7.937938E-1,1.7691847E0,-1E0,-1E0,1.2257028E0,1.7221662E0,4.9984437E-1,1.2529835E0,-6.892115E-1,2.2620678E-1,-1.5335892E0,-1.003851E0,2.6879582E-1,-1.6521739E0,1.2064755E0,1.2591596E-1,-1.2175268E0,5.2293792E-2,1.5222993E0,-1.0001556E0,9.9985176E-1,-3.6081633E-1,1.4145261E0,1.775355E0,3.254198E-1,1.4201852E0,-1.4666667E0,1.4234763E0,-1.1111112E0,1.7272213E0,4.9984437E-1,-1.2447507E0,1.0147728E0,7.60058E-1,-1.2461282E-1,8.569661E-1,-1.5294118E0,1.5158551E0,-1.2E0,-2.752672E-1,7.755325E-1,-1.6190476E0,1.002147E0,-5.07618E-1,1.6531126E0,-1.4094516E0,-3.7724116E-1,-1.7714286E0,4.1896525E-1,1.6128292E0,-1.1111112E0,-1.2E0,1.4444969E0,-4.4265726E-1,1.4749047E0,6.2482166E-1,1.7226335E0,1.6521112E0,3.254198E-1,1.799363E0,7.0950466E-1,-1.2727273E0,1.4041501E0,1.8385973E0,-1E0,-1.1111112E0,1.1770062E0,-1.1526532E0,9.731025E-1,3.254198E-1,1.6909266E0,1.3312677E-1,-1.8518518E0,7.549175E-1,-8.637714E-1,-1.6521739E0,7.650921E-1,-1.3772758E0,4.1896525E-1,4.9984437E-1,1.7760743E0,1.2257028E0,-1E0,-4.6942255E-1,3.5128653E-1,-1.2727273E0,1.6933703E0,1.0215846E0,-1.1111112E0,1.8688257E0,7.025572E-1,4.9984437E-1,1.7559311E0,-1.3333334E0,1.6128292E0,-1.2942325E0,3.1944275E-2,9.393711E-1,-1.1305478E0,-1.6079339E0,-7.82334E-1,-4.0723255E-1,-1.417905E0,-1.0639651E0,1.0028077E0,-1.2E0,1.3738E0,-1.6521739E0,5.6502324E-1,-1.5476863E0,-5.2282643E-1,-7.037347E-1,1.1234524E0,4.9984437E-1,1.6531126E0,-1.2529703E0,1.3206483E0,1.6521112E0,-1.1111112E0,7.025572E-1,-1.3333334E0,1.2029398E-1,1.5590206E0,1.8086922E0,7.075273E-1,-1E0,1.2257028E0,4.0650405E-2,1.7175919E0,1.6306986E0,1.737483E-1,-1.8518518E0,1.2029398E-1,1.5751432E0,-1.2727273E0,8.0406916E-1,-1.5E0,-9.881012E-1,1.0716742E0,9.297666E-1,-1.3333334E0,1.6249262E0,4.6323102E-2,1.2939945E0,-4.533081E-1,1.3731197E-1,1.2335382E0,1.0586673E0,-1.3333334E0,-1.5E0,1.2257028E0,7.025572E-1,1.756709E0,4.7040156E-1,-1.587831E0,-1.1350429E0,2.302969E-1,1.0147728E0,-1.4666667E0,4.9984437E-1,1.7459816E0,3.9981028E-1,1.5934695E0,-1.6521739E0,1.1427301E0,1.7208763E0,3.254198E-1,1.6521112E0,-1.3846154E0,1.8571132E0,5.88063E-1,1.2257028E0,-1E0,1.604417E0,1.8777666E0,1.6521112E0,-1.3333334E0,1.737483E-1,1.7756574E0,7.025572E-1,1.8637798E0,1.4781667E0,4.0650405E-2,1.2257028E0,-1.7575758E0,-3.6081633E-1,1.4781667E0,1.2257028E0,-1E0,1.8243546E0,4.9984437E-1,7.5844306E-1,-1.6190476E0,8.8752776E-1,-1.3846154E0,1.2257028E0,-1.6521739E0,1.1271279E0,-1.5E0,-1.7561802E0,-9.623099E-1,1.1561133E0,-1.5294118E0,1.8518215E0,7.025572E-1,-8.058142E-1,7.542472E-1,-1.060207E-1,9.998386E-1,1.737483E-1,1.8999792E0,1.3948525E0,2.855295E-1,7.025572E-1,1.7780063E0,1.8536289E0,7.075273E-1,-1.68056E0,1.1427301E0,3.7573716E-1,-1.5789474E0,-5.07618E-1,1.4749047E0,-1.75E0,1.2257028E0,-1.6314683E0,8.520082E-1,3.9533916E-1,-1.301628E0,8.8066053E-1,-8.925977E-1,-1.7669288E0,-9.4544604E-2,-1.8222222E0,7.075273E-1,-1.2727273E0,1.2023954E0,3.781965E-1,1.5758909E0,1.4781667E0,-3.2019255E-1,-1.6930673E0,7.0950466E-1,-1.6021186E-1,-1.8367347E0,7.0950466E-1,-1.4186871E0,-1.2727273E0,1.5413164E0,1.756709E0,7.025572E-1,-1.3957849E0,9.4104725E-1,-1.4285715E0,1.3206483E0,1.6167319E0,3.254198E-1,1.8362904E0,8.385542E-1,-1.1111112E0,1.5199203E0,-1.2E0,1.2257028E0,7.025572E-1,1.8344496E0,4.9984437E-1,1.7843883E0,-1.1111112E0,1.2257028E0,1.5199203E0,-1.4666667E0,7.025572E-1,1.7272213E0,1.4176145E0,6.367758E-1,-1.8571428E0,7.0950466E-1,-1.2E0,1.410938E0,4.5610854E-1,1.2692441E0,-7.7088825E-2,1.6974183E0,1.1427301E0,-1.4285715E0,-1.2727273E0,1.6128292E0,-9.31297E-1,7.164068E-2,-1.7037038E0,4.725256E-1,-5.71581E-1,1.410351E0,1.4430965E0,6.7654634E-1,-1.2727273E0,1.1109744E0,-6.624346E-1,-1.9652174E0,-2.4298787E-2,-1.68056E0,-7.135551E-1,1.2498703E0,1.4826661E0,-1.2E0,1.8536289E0,7.025572E-1,1.4999136E0,-1.4666667E0,-1E0,1.6644073E0,-1E0,1.2257028E0,-1.2E0,1.5199203E0,-1.2E0,1.6536899E0,3.254198E-1,1.8924432E0,-1.1111112E0,1.2257028E0],"categories":[],"categories_nodes":[],"categories_segments":[],"categories_sizes":[],"default_left":[1,1,0,1,0,1,0,1,1,0,0,1,0,0,0,0,0,0,0,0,0,0,0,1,0,0,0,0,1,0,0,0,0,1,1,0,0,0,1,0,0,1,1,1,0,0,0,0,1,0,0,0,1,0,0,0,0,0,1,0,0,0,0,0,0,0,0,0,1,1,0,1,0,0,0,0,1,1,0,0,1,0,0,1,0,1,0,0,0,0,0,0,0,1,0,0,0,0,0,0,0,0,0,0,0,0,0,0,1,0,0,0,0,0,0,0,0,1,1,0,0,0,0,0,0,1,0,0,0,0,0,1,0,0,1,0,0,0,0,0,0,0,0,0,0,0,0,1,0,0,0,0,0,0,0,0,1,1,0,0,0,0,0,0,0,0,1,1,1,0,0,0,1,0,0,0,1,1,1,0,1,0,0,0,0,0,0,0,0,0,1,0,0,0,1,0,0,0,0,0,1,1,0,0,0,0,0,1,1,0,0,1,0,0,0,0,0,0,0,1,0,1,1,1,0,0,0,0,0,0,0,0,0,1,0,0,0,0,1,1,0,0,0,0,0,0,1,0,0,0,0,0,0,1,0,0,0,0,0,0,0,1,0,0,0,0,0,0,1,0,1,1,0,0,0,0,0,0,0,0,1,0,0,0,1,1,0,0,0,0,1,0,0,0,0,0,0,0,0,0,0,1,0,0,0,0,0,0,0,0,0,0,0,0,0,0,0,0,0,0,0,0,0,0,0,0,0,0,0,0,0,0,0,0,0,0,0,0,0,0,0,0,0,0,0,0,0,0,0,0,0,0,0,0,0,0,0,0,0,0,0,0,0,0,0,0,0,0,0,0,0,0,0,0,0,0,0,0,0,0,0,0,0,0,0,0,0,0,0,0,0,0,0,0,0,0,0,0,0,0,0,0,0,0,0,0,0,0,0,0,0,0,0,0,0,0,0,0,0,0,0,0,0,0,0,0,0,0,0,0,0,0,0,0,0,0,0,0,0,0,0,0,0,0,0],"id":0,"left_children":[1,3,5,7,9,11,13,15,17,19,21,23,25,27,29,31,33,-1,35,37,39,41,43,45,47,49,51,53,55,57,59,61,63,65,67,-1,-1,69,71,73,75,77,79,81,83,85,87,-1,89,91,93,95,97,99,-1,101,-1,103,105,107,109,-1,-1,-1,-1,-1,-1,111,113,115,117,119,121,123,125,127,129,131,133,135,137,139,141,143,145,147,149,-1,151,-1,153,155,157,159,161,163,165,167,169,171,173,-1,175,-1,177,179,-1,-1,181,183,185,187,189,191,193,195,197,199,201,203,205,207,209,-1,211,213,-1,-1,-1,215,-1,217,219,221,223,225,227,-1,229,231,233,235,237,239,241,243,245,247,249,251,-1,253,-1,-1,-1,255,257,259,261,263,-1,265,-1,267,269,-1,271,273,275,277,279,-1,281,283,-1,-1,285,287,289,291,293,-1,295,297,299,-1,301,303,-1,-1,305,307,309,311,313,315,-1,317,319,-1,321,323,325,-1,327,-1,-1,329,331,-1,333,335,-1,-1,-1,-1,337,-1,339,341,343,345,347,349,351,353,355,357,359,-1,361,-1,363,365,367,369,371,-1,373,375,-1,-1,-1,-1,-1,377,379,381,383,-1,-1,385,387,389,391,-1,393,395,-1,397,-1,399,401,403,-1,405,407,409,411,413,415,417,-1,-1,-1,-1,-1,419,421,423,425,427,-1,-1,429,431,433,-1,-1,-1,435,-1,-1,-1,437,-1,-1,439,441,-1,-1,443,-1,-1,-1,-1,-1,-1,-1,-1,-1,-1,-1,-1,-1,-1,-1,-1,-1,-1,-1,-1,-1,-1,-1,-1,-1,-1,-1,-1,-1,-1,-1,-1,-1,-1,-1,-1,-1,-1,-1,-1,-1,-1,-1,-1,-1,-1,-1,-1,-1,-1,-1,-1,-1,-1,-1,-1,-1,-1,-1,-1,-1,-1,-1,-1,-1,-1,-1,-1,-1,-1,-1,-1,-1,-1,-1,-1,-1,-1,-1,-1,-1,-1,-1,-1,-1,-1,-1,-1,-1,-1,-1,-1,-1,-1,-1,-1,-1,-1,-1,-1,-1,-1,-1,-1,-1,-1,-1,-1,-1,-1,-1,-1,-1,-1,-1,-1,-1,-1,-1,-1,-1,-1,-1,-1,-1,-1,-1,-1,-1,-1,-1,-1,-1,-1,-1,-1,-1,-1,-1,-1,-1,-1,-1],"loss_changes":[1.7701697E3,1.5497954E3,3.5117603E2,5.1850403E1,5.0488818E2,1.8275354E2,9.778284E1,3.275464E1,3.1673904E1,2.817815E2,2.2015723E2,3.5850525E1,1.5083182E2,3.9777508E1,2.9425415E1,5.206848E0,4.1956055E1,0E0,6.141691E-1,1.4472964E2,2.1417633E1,1.5736157E2,1.0090683E2,1.8493347E1,3.204252E1,3.8512756E1,1.3570174E2,4.615665E1,2.7064163E1,2.8936111E1,9.452637E0,8.330078E-1,5.5011134E0,2.8858154E1,1.7474518E1,0E0,0E0,8.957109E1,5.96327E1,2.4256226E1,3.6858063E0,1.1842236E2,6.3268974E1,9.978032E1,1.0657059E2,8.314056E0,3.3049675E1,0E0,1.3349171E1,2.9146591E1,2.0738174E1,5.2644867E1,6.87192E1,3.3868237E1,0E0,2.1722511E1,0E0,2.8912922E1,1.3304939E1,1.4683769E1,5.647827E0,0E0,0E0,0E0,0E0,0E0,0E0,6.792694E0,2.1631908E1,3.2412823E1,6.904181E1,3.3571777E0,5.433073E1,3.2979977E1,1.143169E1,5.5011134E0,1.9394684E0,5.5366512E1,7.779028E1,5.2137047E1,3.8903835E1,4.2070282E1,2.4171928E1,2.3322815E1,1.308828E1,4.2887573E0,2.4811384E1,0E0,1.1527233E1,0E0,1.4596653E0,3.600865E1,2.2666939E1,2.2438938E1,1.5833893E1,7.2038895E1,3.3619377E1,1.7628069E1,4.612375E1,2.5583408E1,1.3038368E1,0E0,1.4958534E1,0E0,1.980565E1,5.604912E0,0E0,0E0,2.4225416E0,5.84729E0,1.5104747E1,1.2521744E1,9.398282E0,2.7218058E1,3.355606E0,3.0421507E1,1.6410677E1,2.7386969E1,4.057065E1,2.025299E0,5.5011134E0,4.2435364E1,1.962661E1,0E0,8.3298855E0,5.28862E-1,0E0,0E0,0E0,2.0932617E0,0E0,2.083828E1,2.389154E1,2.6700098E1,5.6607666E1,3.2893646E1,4.2882595E1,0E0,1.3827007E1,2.2597515E1,3.8754074E1,2.9063972E1,1.4136086E0,2.5122849E1,1.1472518E1,6.193309E0,1.0672592E1,3.157318E0,5.5011134E0,7.006283E0,0E0,4.65781E0,0E0,0E0,0E0,1.6313177E1,1.6316473E1,2.0218185E1,3.7037487E1,1.4073822E1,0E0,1.4160553E1,0E0,5.4248245E1,2.8716118E1,0E0,1.5698471E1,1.1441942E1,1.8520737E-1,3.0646011E1,4.0350487E1,0E0,1.7121399E1,1.8066559E0,0E0,0E0,8.6082E0,1.9943615E1,3.2091866E0,1.8799585E1,4.9589005E0,0E0,5.5011134E0,2.5483398E0,1.7124159E1,0E0,5.061495E0,6.403198E-1,0E0,0E0,4.9298725E0,1.6301193E1,1.1030439E1,5.5011134E0,2.1732712E0,2.1769367E1,0E0,1.5129295E1,1.4105047E1,0E0,2.2940388E1,3.2388977E1,2.1753391E1,0E0,5.1467896E-1,0E0,0E0,6.24504E1,3.2306366E1,0E0,6.8374023E0,3.8138294E0,0E0,0E0,0E0,0E0,3.7049866E-1,0E0,2.629856E0,2.9928051E1,1.4944725E1,1.4630374E1,1.6132162E1,5.5914795E1,5.8761734E1,3.636156E1,3.659012E1,2.2332542E1,1.4282852E1,0E0,5.1875305E0,0E0,1.9062353E1,3.94028E1,2.6900503E1,2.2307743E1,1.6811527E1,0E0,1.8520737E-1,1.2775997E1,0E0,0E0,0E0,0E0,0E0,1.4744734E1,3.1870499E0,1.6790466E0,9.690628E0,0E0,0E0,7.473798E0,3.9123917E-1,1.9318047E0,6.54261E0,0E0,1.7590649E1,3.5902023E-2,0E0,1.8408157E1,0E0,3.192839E1,1.3315935E1,1.2041588E1,0E0,1.0328491E1,1.322046E1,1.8280666E1,4.3534912E1,2.6978804E1,1.9128502E1,1.4629044E1,0E0,0E0,0E0,0E0,0E0,1.0903919E1,2.721817E1,2.3538887E1,4.8200577E1,1.3349171E1,0E0,0E0,4.664421E-1,2.0164272E1,1.1167938E1,0E0,0E0,0E0,5.5011134E0,0E0,0E0,0E0,1.1264664E1,0E0,0E0,1.7354156E1,5.1622314E0,0E0,0E0,6.54261E0,0E0,0E0,0E0,0E0,0E0,0E0,0E0,0E0,0E0,0E0,0E0,0E0,0E0,0E0,0E0,0E0,0E0,0E0,0E0,0E0,0E0,0E0,0E0,0E0,0E0,0E0,0E0,0E0,0E0,0E0,0E0,0E0,0E0,0E0,0E0,0E0,0E0,0E0,0E0,0E0,0E0,0E0,0E0,0E0,0E0,0E0,0E0,0E0,0E0,0E0,0E0,0E0,0E0,0E0,0E0,0E0,0E0,0E0,0E0,0E0,0E0,0E0,0E0,0E0,0E0,0E0,0E0,0E0,0E0,0E0,0E0,0E0,0E0,0E0,0E0,0E0,0E0,0E0,0E0,0E0,0E0,0E0,0E0,0E0,0E0,0E0,0E0,0E0,0E0,0E0,0E0,0E0,0E0,0E0,0E0,0E0,0E0,0E0,0E0,0E0,0E0,0E0,0E0,0E0,0E0,0E0,0E0,0E0,0E0,0E0,0E0,0E0,0E0,0E0,0E0,0E0,0E0,0E0,0E0,0E0,0E0,0E0,0E0,0E0,0E0,0E0,0E0,0E0,0E0,0E0,0E0,0E0,0E0,0E0,0E0,0E0,0E0,0E0,0E0,0E0,0E0,0E0,0E0],"parents":[2147483647,0,0,1,1,2,2,3,3,4,4,5,5,6,6,7,7,8,8,9,9,10,10,11,11,12,12,13,13,14,14,15,15,16,16,18,18,19,19,20,20,21,21,22,22,23,23,24,24,25,25,26,26,27,27,28,28,29,29,30,30,31,31,32,32,33,33,34,34,37,37,38,38,39,39,40,40,41,41,42,42,43,43,44,44,45,45,46,46,48,48,49,49,50,50,51,51,52,52,53,53,55,55,57,57,58,58,59,59,60,60,67,67,68,68,69,69,70,70,71,71,72,72,73,73,74,74,75,75,76,76,77,77,78,78,79,79,80,80,81,81,82,82,83,83,84,84,85,85,86,86,88,88,90,90,91,91,92,92,93,93,94,94,95,95,96,96,97,97,98,98,99,99,100,100,102,102,104,104,105,105,108,108,109,109,110,110,111,111,112,112,113,113,114,114,115,115,116,116,117,117,118,118,119,119,120,120,121,121,122,122,124,124,125,125,129,129,131,131,132,132,133,133,134,134,135,135,136,136,138,138,139,139,140,140,141,141,142,142,143,143,144,144,145,145,146,146,147,147,148,148,149,149,151,151,155,155,156,156,157,157,158,158,159,159,161,161,163,163,164,164,166,166,167,167,168,168,169,169,170,170,172,172,173,173,176,176,177,177,178,178,179,179,180,180,182,182,183,183,184,184,186,186,187,187,190,190,191,191,192,192,193,193,194,194,195,195,197,197,198,198,200,200,201,201,202,202,204,204,207,207,208,208,210,210,211,211,216,216,218,218,219,219,220,220,221,221,222,222,223,223,224,224,225,225,226,226,227,227,228,228,230,230,232,232,233,233,234,234,235,235,236,236,238,238,239,239,245,245,246,246,247,247,248,248,251,251,252,252,253,253,254,254,256,256,257,257,259,259,261,261,262,262,263,263,265,265,266,266,267,267,268,268,269,269,270,270,271,271,277,277,278,278,279,279,280,280,281,281,284,284,285,285,286,286,290,290,294,294,297,297,298,298,301,301],"right_children":[2,4,6,8,10,12,14,16,18,20,22,24,26,28,30,32,34,-1,36,38,40,42,44,46,48,50,52,54,56,58,60,62,64,66,68,-1,-1,70,72,74,76,78,80,82,84,86,88,-1,90,92,94,96,98,100,-1,102,-1,104,106,108,110,-1,-1,-1,-1,-1,-1,112,114,116,118,120,122,124,126,128,130,132,134,136,138,140,142,144,146,148,150,-1,152,-1,154,156,158,160,162,164,166,168,170,172,174,-1,176,-1,178,180,-1,-1,182,184,186,188,190,192,194,196,198,200,202,204,206,208,210,-1,212,214,-1,-1,-1,216,-1,218,220,222,224,226,228,-1,230,232,234,236,238,240,242,244,246,248,250,252,-1,254,-1,-1,-1,256,258,260,262,264,-1,266,-1,268,270,-1,272,274,276,278,280,-1,282,284,-1,-1,286,288,290,292,294,-1,296,298,300,-1,302,304,-1,-1,306,308,310,312,314,316,-1,318,320,-1,322,324,326,-1,328,-1,-1,330,332,-1,334,336,-1,-1,-1,-1,338,-1,340,342,344,346,348,350,352,354,356,358,360,-1,362,-1,364,366,368,370,372,-1,374,376,-1,-1,-1,-1,-1,378,380,382,384,-1,-1,386,388,390,392,-1,394,396,-1,398,-1,400,402,404,-1,406,408,410,412,414,416,418,-1,-1,-1,-1,-1,420,422,424,426,428,-1,-1,430,432,434,-1,-1,-1,436,-1,-1,-1,438,-1,-1,440,442,-1,-1,444,-1,-1,-1,-1,-1,-1,-1,-1,-1,-1,-1,-1,-1,-1,-1,-1,-1,-1,-1,-1,-1,-1,-1,-1,-1,-1,-1,-1,-1,-1,-1,-1,-1,-1,-1,-1,-1,-1,-1,-1,-1,-1,-1,-1,-1,-1,-1,-1,-1,-1,-1,-1,-1,-1,-1,-1,-1,-1,-1,-1,-1,-1,-1,-1,-1,-1,-1,-1,-1,-1,-1,-1,-1,-1,-1,-1,-1,-1,-1,-1,-1,-1,-1,-1,-1,-1,-1,-1,-1,-1,-1,-1,-1,-1,-1,-1,-1,-1,-1,-1,-1,-1,-1,-1,-1,-1,-1,-1,-1,-1,-1,-1,-1,-1,-1,-1,-1,-1,-1,-1,-1,-1,-1,-1,-1,-1,-1,-1,-1,-1,-1,-1,-1,-1,-1,-1,-1,-1,-1,-1,-1,-1,-1],"split_conditions":[5.8222973E-1,7.5E-2,9.33E0,1.75E-1,7.25E-1,6.9300003E0,3.05E-1,1.1844999E1,1.3728249E2,1.8095001E1,1.0575E1,2.77E0,1.42E1,3.6815002E1,3.5545E1,5.622E1,5E-3,-1.05E-1,1.0931832E2,1.2413033E2,5.8010002E1,1.685E0,7.6765E1,7.775E1,4.345E1,2.005E0,6.37E0,6.087E1,1.8319817E2,1.7865E1,1.9449999E0,9.5000005E-1,3.0739E2,1.6202625E2,1.56E1,9.119522E-2,2.9990662E-2,8.8E-1,1.241775E2,4.6769997E1,1.5E-1,9.596909E1,6.105E0,2.69228E1,2.436E1,4.2575E1,9.897E1,-1.0285714E-1,5.2E-1,1.5939598E1,4.91E0,2.1540913E1,4.6E-1,2.0694695E1,-1.0978723E-1,1.0355E1,-8.9999996E-2,6.95E-1,1.8132227E2,1.615E0,4.125E0,4.2153433E-2,1.1467293E-1,-6E-2,7.354216E-2,-1.05E-1,9.119522E-2,9.844999E0,3.5000002E-1,1.8738667E1,7.89E0,6.55E-1,1.522E2,6.2085E1,2.1547E2,4.4415E1,4.9E1,7.95E1,6.1E1,2.35E-1,9.5E-2,1.027E1,2.6375833E2,5.195765E1,1.59850235E1,2.9901352E1,5.7200003E0,-9.714285E-2,1.6300001E0,-7.2000004E-2,1.1142596E2,6.3E-1,7.54E0,3.38E0,9.085E0,4.475E0,5E-3,1.15308E2,1.55E-1,8.4345E1,1.4473468E2,-8.3076924E-2,1.0763498E2,-1.0153846E-1,3.7625E1,3.4E-1,-6.666667E-2,-8E-2,3.2E-1,1.9414223E2,3.05E1,4.185E1,2.5E-2,1.5200009E0,9.3209E1,4.227162E1,2.22E0,1.5639706E2,5.3499997E-1,1.01565414E2,1.1693544E2,1.0996E2,2.6745E1,-1.04E-1,1.5996584E2,6.498E1,-6E-2,-6E-2,7.354216E-2,6.5E-2,2.9990662E-2,1.6570694E1,9.474184E1,8.9E-1,2.2627121E1,1.6499999E-1,4.715E1,-9.913043E-2,9.35E-1,2.0749998E0,1.951044E1,1.6800001E0,1.055096E2,7.131E1,4.85E-1,1.3083181E1,1.22E0,5.8129997E1,1.08899666E2,1.09824646E2,-8.8E-2,4.26188E1,-6.666667E-2,1.0363327E-1,2.9990662E-2,1.5254965E2,1.04343994E2,1.95505E2,2.0949713E1,5.4226923E0,-9.17647E-2,6.15E-1,-7.2000004E-2,1.9220001E1,4.19E1,-9.714285E-2,3.9555E1,3.335E1,1.0475E2,5E-3,3.6955E1,-1.0628571E-1,2.05E-1,1.0215071E2,-6.666667E-2,-7.2000004E-2,1.95E-1,3.9499998E-1,1.0796568E2,1.267E1,1.5604282E2,9.912667E-2,1.00875656E2,1.5865E1,6.75E-1,-7.636363E-2,1.71E0,4.2349997E0,-6E-2,-6.666667E-2,1.17647385E2,9.2239136E1,2.581E1,8.3E1,1.87045E1,1.3927852E2,-1.11111104E-1,1.2068E2,7.5533585E1,-9.913043E-2,1.0754397E2,1.8882465E2,2.025E0,2.9990662E-2,2.8810493E1,7.354216E-2,-6E-2,5.6E-1,4.5E-2,-7.636363E-2,4.0155E1,2.1545E1,-6.666667E-2,1.1212954E-1,4.2153433E-2,2.9990662E-2,9.024654E1,-8E-2,2.315E1,1.2689E2,1.95E-1,5.4E1,1.1179741E2,1.3461E2,1.1225E1,3.3499998E-1,5.0114998E1,5.5455E1,1.0058794E2,-7.2000004E-2,4.084E1,-9.913043E-2,1.8095001E1,2.5E0,1.645E1,3.5E-1,2.8595001E1,2.9990662E-2,3.7479913E2,4.09E0,7.92389E-2,9.912667E-2,-6.666667E-2,4.2153433E-2,-8E-2,1.3795E1,1.5059094E2,2.15E-1,7.082E1,-6E-2,7.354216E-2,1.1750722E2,1.0776642E2,8.1134766E1,2.2564E2,-1.11111104E-1,1.5349768E2,4.1712242E1,-7.636363E-2,2.3925E1,-8.9999996E-2,1.5629999E1,5.6E-1,4.1E-1,-8E-2,3.5500002E-1,4.5499998E-1,1.19E0,1.585E0,1.0995288E2,4.5E-2,1.14897995E2,-8E-2,-8.9999996E-2,7.354216E-2,4.2153433E-2,1.0540254E-1,4.0284374E1,4.0875E1,1.1895E1,4.715E0,1.43901E2,-8.8E-2,2.9990662E-2,1.8073729E2,9.4850815E1,8.5E-1,-9.913043E-2,6.8563804E-2,1.03252575E-1,4.918625E1,9.912667E-2,-8.3076924E-2,1.1142679E-1,1.7515024E2,7.354216E-2,-6E-2,3.5E-1,4.0499997E-1,9.912667E-2,-8E-2,3.961E1,1.0653944E-1,4.2153433E-2,1.11826785E-1,8.869E-2,2.4390242E-3,7.354216E-2,-1.0545454E-1,-2.1648979E-2,8.869E-2,7.354216E-2,-6E-2,1.0946128E-1,2.9990662E-2,4.550658E-2,-9.714285E-2,5.3251665E-2,-8.3076924E-2,7.354216E-2,-9.913043E-2,6.762767E-2,-8.9999996E-2,-1.05370805E-1,-5.773859E-2,6.93668E-2,-9.17647E-2,1.1110929E-1,4.2153433E-2,-4.834885E-2,4.525483E-2,-6.3612415E-3,5.9990313E-2,1.0424898E-2,1.1399875E-1,8.369115E-2,1.713177E-2,4.2153433E-2,1.0668038E-1,1.1121773E-1,4.2451635E-2,-1.00833595E-1,6.8563804E-2,2.254423E-2,-9.4736844E-2,-3.045708E-2,8.849428E-2,-1.05E-1,7.354216E-2,-9.78881E-2,5.1120494E-2,2.3720348E-2,-7.809768E-2,5.283963E-2,-5.355586E-2,-1.0601573E-1,-5.672676E-3,-1.0933333E-1,4.2451635E-2,-7.636363E-2,7.2143726E-2,2.269179E-2,9.455345E-2,8.869E-2,-1.9211553E-2,-1.0158404E-1,4.2570278E-2,-9.612711E-3,-1.1020408E-1,4.2570278E-2,-8.512122E-2,-7.636363E-2,9.247898E-2,1.0540254E-1,4.2153433E-2,-8.374709E-2,5.6462836E-2,-8.571429E-2,7.92389E-2,9.7003914E-2,1.9525189E-2,1.1017742E-1,5.031325E-2,-6.666667E-2,9.119522E-2,-7.2000004E-2,7.354216E-2,4.2153433E-2,1.1006698E-1,2.9990662E-2,1.0706329E-1,-6.666667E-2,7.354216E-2,9.119522E-2,-8.8E-2,4.2153433E-2,1.0363327E-1,8.505686E-2,3.8206547E-2,-1.1142857E-1,4.2570278E-2,-7.2000004E-2,8.465628E-2,2.7366512E-2,7.615464E-2,-4.6253293E-3,1.018451E-1,6.8563804E-2,-8.571429E-2,-7.636363E-2,9.676975E-2,-5.587782E-2,4.2984406E-3,-1.0222223E-1,2.8351536E-2,-3.429486E-2,8.462106E-2,8.658579E-2,4.059278E-2,-7.636363E-2,6.665847E-2,-3.9746072E-2,-1.1791304E-1,-1.4579272E-3,-1.00833595E-1,-4.2813305E-2,7.499222E-2,8.895997E-2,-7.2000004E-2,1.1121773E-1,4.2153433E-2,8.999481E-2,-8.8E-2,-6E-2,9.986443E-2,-6E-2,7.354216E-2,-7.2000004E-2,9.119522E-2,-7.2000004E-2,9.9221386E-2,1.9525189E-2,1.1354659E-1,-6.666667E-2,7.354216E-2],"split_indices":[58,47,25,44,31,45,38,34,7,25,25,33,57,34,43,37,33,0,3,21,43,47,30,32,37,47,27,54,7,25,33,34,21,7,30,0,0,61,21,37,29,21,35,15,33,30,32,0,42,20,25,20,32,20,0,25,0,42,7,47,58,0,0,0,0,0,0,45,57,20,45,27,43,25,32,20,15,18,18,29,38,34,18,15,20,20,45,0,44,0,3,38,35,47,25,33,31,21,31,32,21,0,21,0,30,27,0,0,42,16,60,34,38,29,7,16,47,18,29,7,7,3,30,0,7,30,0,0,0,38,0,20,21,47,20,35,30,0,33,45,20,47,7,34,27,20,36,43,7,21,0,16,0,0,0,7,3,32,20,58,0,29,0,37,37,0,54,15,7,44,37,0,31,3,0,0,27,31,3,30,7,0,3,45,47,0,44,37,0,0,21,7,37,7,20,7,0,43,18,0,3,18,33,0,20,0,0,27,49,0,37,30,0,0,0,0,21,0,37,32,38,56,3,43,45,33,34,34,3,0,32,0,30,36,45,35,34,0,18,44,0,0,0,0,0,45,21,49,32,0,0,3,3,18,7,0,7,16,0,37,0,54,27,38,0,44,31,35,47,21,29,21,0,0,0,0,0,16,32,45,54,7,0,0,7,7,47,0,0,0,16,0,0,0,7,0,0,38,36,0,0,16,0,0,0,0,0,0,0,0,0,0,0,0,0,0,0,0,0,0,0,0,0,0,0,0,0,0,0,0,0,0,0,0,0,0,0,0,0,0,0,0,0,0,0,0,0,0,0,0,0,0,0,0,0,0,0,0,0,0,0,0,0,0,0,0,0,0,0,0,0,0,0,0,0,0,0,0,0,0,0,0,0,0,0,0,0,0,0,0,0,0,0,0,0,0,0,0,0,0,0,0,0,0,0,0,0,0,0,0,0,0,0,0,0,0,0,0,0,0,0,0,0,0,0,0,0,0,0,0,0,0,0,0,0,0,0,0,0,0,0,0,0,0,0],"split_type":[0,0,0,0,0,0,0,0,0,0,0,0,0,0,0,0,0,0,0,0,0,0,0,0,0,0,0,0,0,0,0,0,0,0,0,0,0,0,0,0,0,0,0,0,0,0,0,0,0,0,0,0,0,0,0,0,0,0,0,0,0,0,0,0,0,0,0,0,0,0,0,0,0,0,0,0,0,0,0,0,0,0,0,0,0,0,0,0,0,0,0,0,0,0,0,0,0,0,0,0,0,0,0,0,0,0,0,0,0,0,0,0,0,0,0,0,0,0,0,0,0,0,0,0,0,0,0,0,0,0,0,0,0,0,0,0,0,0,0,0,0,0,0,0,0,0,0,0,0,0,0,0,0,0,0,0,0,0,0,0,0,0,0,0,0,0,0,0,0,0,0,0,0,0,0,0,0,0,0,0,0,0,0,0,0,0,0,0,0,0,0,0,0,0,0,0,0,0,0,0,0,0,0,0,0,0,0,0,0,0,0,0,0,0,0,0,0,0,0,0,0,0,0,0,0,0,0,0,0,0,0,0,0,0,0,0,0,0,0,0,0,0,0,0,0,0,0,0,0,0,0,0,0,0,0,0,0,0,0,0,0,0,0,0,0,0,0,0,0,0,0,0,0,0,0,0,0,0,0,0,0,0,0,0,0,0,0,0,0,0,0,0,0,0,0,0,0,0,0,0,0,0,0,0,0,0,0,0,0,0,0,0,0,0,0,0,0,0,0,0,0,0,0,0,0,0,0,0,0,0,0,0,0,0,0,0,0,0,0,0,0,0,0,0,0,0,0,0,0,0,0,0,0,0,0,0,0,0,0,0,0,0,0,0,0,0,0,0,0,0,0,0,0,0,0,0,0,0,0,0,0,0,0,0,0,0,0,0,0,0,0,0,0,0,0,0,0,0,0,0,0,0,0,0,0,0,0,0,0,0,0,0,0,0,0,0,0,0,0,0,0,0,0,0,0,0,0,0,0,0,0,0,0,0,0,0,0,0,0,0,0,0,0,0,0],"sum_hessian":[4.578E3,2.7963538E3,1.7816462E3,3.3393567E2,2.462418E3,1.2021711E3,5.794751E2,3.214367E2,1.2498962E1,7.6483716E2,1.6975809E3,1.8496577E2,1.0172054E3,1.1490041E2,4.6457468E2,1.838776E2,1.3755913E2,7E0,5.4989624E0,6.495249E2,1.1531224E2,1.343529E3,3.5405188E2,1.6880083E2,1.6164938E1,4.246027E2,5.926027E2,4.9744812E1,6.51556E1,7.3154564E1,3.9142014E2,1.812946E2,2.5829875E0,1.0165976E1,1.2739315E2,3.165975E0,2.3329875E0,3.428942E2,3.066307E2,3.941079E1,7.590145E1,1.1332966E3,2.1023236E2,2.4789938E2,1.0615249E2,1.4522095E2,2.3579876E1,6E0,1.0164938E1,2.5254875E2,1.7205394E2,4.0036618E2,1.9223651E2,3.8994812E1,1.075E1,6.21556E1,3E0,2.6246887E1,4.6907677E1,9.33195E0,3.8208817E2,2.0829875E0,1.7921162E2,1E0,1.5829875E0,7E0,3.165975E0,8.29834E1,4.440975E1,8.4573654E1,2.5832053E2,2.6244814E1,2.803859E2,2.2080914E1,1.7329876E1,2.5829875E0,7.331847E1,7.274274E1,1.060554E3,1.7623755E2,3.3994812E1,1.9823962E2,4.965975E1,4.4996887E1,6.11556E1,1.2622407E2,1.8996887E1,4.25E0,1.9329876E1,1.5E0,8.664938E0,2.8580914E1,2.2396783E2,8.273755E1,8.931639E1,2.8888382E2,1.1148237E2,1.7996887E1,1.7423962E2,2.0664938E1,1.8329876E1,2.25E0,5.99056E1,5.5E0,2.0746887E1,4.5657677E1,1.25E0,2E0,7.33195E0,3.6959024E2,1.2497925E1,6.815249E1,1.4830913E1,2.34139E1,2.099585E1,3.0247925E1,5.4325726E1,2.9662863E1,2.2865767E2,2.3661825E1,2.5829875E0,2.5680707E2,2.3578838E1,6.5E0,1.5580913E1,1.6329876E1,1E0,1E0,1.5829875E0,7.098547E1,2.3329875E0,1.9079876E1,5.3662865E1,2.5496887E1,1.035057E3,1.3449274E2,4.1744812E1,4.75E0,2.9244814E1,2.6746887E1,1.7149274E2,3.3912865E1,1.5746888E1,3.8997925E1,5.9989624E0,4.082988E0,5.7072613E1,1.23641075E2,2.5829875E0,1.6246887E1,2.75E0,1.8079876E1,1.25E0,6.33195E0,2.3329875E0,1.8415976E1,1.0164938E1,1.9013797E2,3.3829876E1,7.948755E1,3.25E0,8.781639E1,1.5E0,1.9106535E2,9.781847E1,4.25E0,1.0723237E2,4.582988E0,1.34139E1,8.81639E1,8.607573E1,7.75E0,1.2914938E1,1.7079876E1,1.25E0,1.5E0,5.84056E1,8.415976E0,1.2330913E1,6.9989624E0,3.8658714E1,4.7489624E0,2.5829875E0,3.6284128E2,6.7489624E0,1.75E0,1.0747925E1,6.715249E1,1E0,1.25E0,1.3580913E1,8.832988E0,1.4580913E1,2.5829875E0,1.8412863E1,1.7747925E1,1.25E1,4.7992737E1,6.332988E0,4.75E0,2.4912863E1,2.1574274E2,1.2914938E1,2.3329875E0,2.1328838E1,1.5829875E0,1E0,1.4923755E2,1.075695E2,1.75E0,2.1828838E1,1.4330913E1,1.25E0,1.4246888E1,2.0829875E0,2.3329875E0,6.865249E1,2E0,1.7079876E1,2.8748962E1,2.49139E1,1.69139E1,8.582988E0,9.408133E2,9.4243774E1,5.5911827E1,7.858091E1,1.4665976E1,2.7078838E1,1.5E0,2.7744814E1,4.75E0,2.1996887E1,1.154139E2,5.607884E1,2.0081951E1,1.3830913E1,2.3329875E0,1.34139E1,3.558195E1,3.415975E0,4.7489624E0,1.25E0,2.0829875E0,2E0,5.915975E0,5.115664E1,1.19225105E2,4.415975E0,1E0,1.5829875E0,3.0829875E0,1.31639E1,1.5246888E1,2.8329875E0,1.25E1,5.915975E0,8.414938E0,1.75E0,1.8713797E2,3E0,1.9748962E1,1.4080913E1,7.748755E1,2E0,8.165041E1,6.165975E0,1.8829876E1,1.7223547E2,4.1411827E1,5.640664E1,1.0523237E2,2E0,3E0,1.5829875E0,2.0829875E0,1.1330913E1,7.4989624E0,8.066494E1,3.7914936E1,4.816079E1,1.0164938E1,2.75E0,2.3329875E0,1.4746888E1,7.7489624E0,5.065664E1,4.75E0,3.665975E0,9.747925E0,2.5829875E0,4.7489624E0,2.25E0,3.3992737E1,4.665975E0,1.5829875E0,1E0,1.1022822E2,2.5261307E2,4.7489624E0,2E0,2.8329875E0,7.914938E0,2.0829875E0,6.50695E1,1.0497925E1,3.0829875E0,1.5829875E0,7.25E0,4.082988E0,1.0497925E1,1.5829875E0,1E0,1.6079876E1,2.3329875E0,1.3497925E1,4.25E0,4.5742737E1,2.25E0,1.5829875E0,4.75E0,2.1912863E1,3E0,1.1108195E2,1.0466079E2,9.664938E0,3.25E0,1.924585E1,2.0829875E0,1.1732573E2,3.1911825E1,6.3576763E1,4.3992737E1,2.8329875E0,1.899585E1,8.914938E0,5.415975E0,2.0829875E0,6.65695E1,1.26639E1,4.415975E0,2.5082987E1,3.665975E0,2.11639E1,3.75E0,4.582988E0,1.2330913E1,7E0,1.5829875E0,9.322313E2,8.58195E0,2.8912863E1,6.533091E1,1.5080913E1,4.0830914E1,6.1915974E1,1.6664938E1,1.025E1,4.415975E0,1.75E0,2.5328838E1,5.165975E0,2.2578838E1,1.0497925E1,1.1498962E1,1.0866494E2,6.7489624E0,4.482884E1,1.125E1,6.7489624E0,1.3332988E1,1.75E0,1.2080913E1,1.1330913E1,2.0829875E0,3.3748962E1,1.8329875E0,2.5E0,3.415975E0,4.857365E1,2.5829875E0,1.1505913E2,4.165975E0,1.25E0,3.165975E0,1.5E0,1.5829875E0,2.0829875E0,1.1080913E1,2.3329875E0,1.29139E1,1.25E0,1.5829875E0,3.165975E0,2.75E0,2.0829875E0,6.33195E0,3.8492737E1,1.4864523E2,1.3E1,6.7489624E0,1.5E0,1.2580913E1,3.332884E1,4.4158714E1,3.3329875E0,7.831743E1,3.665975E0,2.5E0,1.75E0,1.7079876E1,8.974481E1,8.249066E1,5.75E0,3.5661827E1,4.832988E0,5.157365E1,5.107365E1,5.4158714E1,1.75E0,5.7489624E0,2.4164938E1,5.65E1,1.283195E1,2.5082987E1,2.5164938E1,2.299585E1,8.664938E0,1.5E0,1.26639E1,2.0829875E0,4.9989624E0,2.75E0,1E0,4.965664E1,1E0,1.5829875E0,1.5E0,3.165975E0,1.5E0,1.0872822E2,2.5829875E0,2.5003008E2,1.25E0,1.5829875E0],"tree_param":{"num_deleted":"0","num_feature":"63","num_nodes":"445","size_leaf_vector":"0"}},{"base_weights":[1.63685E-5,-4.6736956E-1,7.333761E-1,1.4366263E0,-7.257896E-1,4.4224733E-1,1.3363124E0,1.5088911E0,-1.0471889E-2,-9.7943044E-1,-4.4849012E-2,1.3033435E0,2.8476048E-1,5.479881E-1,1.5297774E0,1.556669E0,1.946998E-1,-1.6385677E0,1.03432E0,8.846851E-1,-1.0378562E0,-5.553043E-1,3.49452E-1,1.4570576E0,4.2725888E-1,-6.5658726E-2,6.50538E-1,8.434002E-1,-7.451467E-1,9.5802045E-1,1.6339471E0,1.5737212E0,-1.1521578E0,1.3102827E0,-1.5586576E0,-1.0544429E0,1.4135336E0,1.2013882E0,-5.8703566E-1,-1.1547581E0,-2.3200272E-1,3.4195322E-1,-8.1105775E-1,9.5014095E-2,1.2181499E0,1.4899737E0,-1.1794068E0,-1.6019403E0,9.398017E-1,7.9625934E-1,-3.669238E-1,2.0926093E-1,1.044131E0,-1.5407817E0,9.654567E-1,-1.7845029E0,6.689686E-1,1.1119087E0,-1.5227472E0,1.6483637E0,4.1348222E-1,1.7430241E0,1.326808E0,4.7006968E-1,1.5690192E0,4.4771558E-1,1.6594077E0,1.4876136E0,-2.422414E-1,-1.6856122E0,1.1267176E0,-6.280743E-1,-1.3296585E0,4.831077E-1,-5.8141357E-1,-6.0909986E-1,1.0912266E0,-1.1024345E0,1.4626798E-1,6.245926E-1,-4.256448E-1,1.2757026E0,-1.2035164E0,1.6343206E0,1.0914129E0,1.1669077E0,-1.230535E0,1.1075838E0,-7.538386E-3,-6.419041E-1,3.642099E-1,1.3413857E0,-1.9681428E-2,4.3534878E-1,1.2593561E0,1.0558586E0,-1.413886E0,1.3182074E0,-1.3029329E0,-1.4624939E0,1.2583951E0,1.6739131E0,7.2290176E-1,1.4396855E0,-1.290068E0,6.5845436E-1,1.7520891E0,1.420537E0,2.807014E-1,1.6132357E0,4.115227E-2,-1.5469148E0,1.4596158E0,-1.0478209E0,2.214417E-1,-1.4397796E0,-6.450224E-1,6.885066E-1,-1.6446966E0,-7.4984324E-1,1.5034405E0,4.06678E-1,-1.8026458E0,1.3620881E0,-5.8922726E-1,-1.3578589E0,-2.7415654E-1,-1.6960739E0,4.341312E-1,7.108654E-1,-1.6027272E0,-1.0117186E0,1.7861582E-1,-1.1584798E0,1.3339263E0,1.6716267E0,1.3826314E-1,1.258198E0,-1.414516E0,1.3544399E0,-1.0921918E0,-5.720554E-1,1.2936989E0,1.610271E0,-4.9198076E-1,3.7483418E-1,-8.235881E-1,1.1132673E0,-6.1293885E-2,1.4709214E0,-1.1758189E0,-5.028114E-1,7.135673E-1,6.5120804E-1,-1.0909278E0,7.1277255E-1,1.5557637E0,9.320953E-2,1.2508105E0,1.5784773E0,4.731871E-1,1.8707228E-1,1.4104016E0,1.6904253E0,6.7072624E-1,-1.3342733E0,1.3249493E0,7.151249E-1,1.5595167E0,1.564338E0,-8.0043775E-1,1.7132362E0,9.663682E-1,1.1729097E0,-1.1448325E0,1.0665733E-1,-1.2787049E0,5.3994983E-1,-1.5475339E0,-1.9944763E-1,-1.4911208E0,-9.061073E-1,4.3609843E-1,8.303083E-1,-1.4843463E0,1.107314E0,-9.0121806E-1,4.746758E-1,1.7132128E0,-1.480211E0,9.702711E-1,3.3719778E-2,1.501824E0,-1.5139874E0,1.1624085E0,8.542588E-2,-1.5474757E0,9.6340233E-1,-1.113243E0,-1.6417198E0,7.4500006E-1,-6.348501E-1,8.200578E-1,-1.3466133E0,1.4142041E0,7.1682787E-1,-3.803194E-1,8.289454E-1,1.6486439E0,1.7023864E0,2.838493E-1,1.1604658E0,-1.0960848E0,-4.4091657E-1,1.4637021E0,1.5339462E0,1.542663E-1,-1.6783576E0,1.006605E0,1.350378E0,-1.1852103E0,6.806757E-1,-1.2255733E0,-8.668134E-1,8.7339896E-1,-9.999304E-1,5.1835644E-1,1.3082399E0,-1.406819E0,2.4182186E-1,-1.3692663E0,1.6390969E0,3.301314E-1,-6.834758E-1,1.0312386E0,1.0958706E0,-7.694904E-1,8.8034785E-1,-9.90439E-1,-1.7221808E0,1.1651893E0,8.450293E-1,-1.5316515E0,1.6207942E0,-1.3754418E0,-1.5925716E0,8.975085E-1,1.306423E0,-1.0800847E0,-1.4699184E0,1.2846817E0,1.5366365E-1,1.4714317E0,1.7014447E0,6.349874E-1,1.5734818E0,-1.2813938E0,4.6576917E-1,1.5277022E0,1.1586977E0,-1.4869975E0,1.5911992E0,2.839461E-1,1.1578298E0,-1.5741051E0,1.7681625E0,6.758322E-1,1.2993377E-1,1.5029335E0,5.668175E-1,-9.089605E-1,-6.402293E-1,-1.5709149E0,2.3447496E-1,1.670462E0,1.1981988E0,-1.8557578E0,-1.4486568E0,6.729803E-1,-1.5524322E0,-1.0457006E0,4.1952696E-1,-1.1296718E0,-1.5834475E0,8.275176E-1,9.439231E-1,-1.4046123E0,-2.8621586E-2,1.6104674E0,8.24545E-2,-1.2142231E0,1.334774E0,-1.1676961E0,1.1935934E0,-1.1787812E0,1.5765132E0,4.512737E-1,-1.588235E0,9.0245193E-1,-1.8409958E0,-4.5299438E-1,1.3842748E0,-1.331058E0,1.066568E-1,-1.8035626E0,1.0318239E0,-8.149101E-1,-1.6765912E0,1.336141E0,8.7972486E-1,-1.4397792E0,4.802298E-1,-1.5851556E0,1.6527945E0,4.647817E-1,-1.3968145E0,9.2081815E-1,7.7495694E-1,-1.2573261E0,1.5687153E0,-1.128713E0,1.7342546E0,1.682751E-1,1.7253752E0,4.6723667E-1,-1.4257562E0,1.1604658E0,1.5674084E0,1.3054667E-1,1.7711332E0,6.518707E-1,1.1621886E0,-1.0703461E0,6.172833E-1,1.5462471E0,-5.4154104E-1,1.464816E0,-1.5127443E0,1.2025597E0,9.434458E-1,-1.7592001E0,1.1451015E0,-1.4363946E0,-1.0847445E0,1.0106896E0,9.541393E-1,-1.5863453E0,1.5348247E0,-3.863917E-1,5.728774E-1,-8.9495647E-1,1.2025597E0,-1.828222E0,6.869001E-1,1.7617698E0,1.4683865E0,-1.3601422E0,-1.0418102E0,-1.8730588E-1,1.58357E0,-1.3364772E0,-5.785613E-1,1.2448753E0,1.2571692E0,-1.3829491E0,-1.07948706E-1,1.198643E0,1.1740185E0,-1.69757E0,9.5386076E-1,-1.3947402E0,6.038737E-3,1.6623958E0,1.4045618E0,-1.2102778E0,5.6632864E-1,1.5223296E0,-1.0684174E0,1.1596868E0,1.6023486E0,8.3845013E-1,9.547198E-1,1.7156857E0,1.437235E0,-1.1310992E0],"categories":[],"categories_nodes":[],"categories_segments":[],"categories_sizes":[],"default_left":[1,1,0,1,0,1,0,1,1,1,0,1,1,0,0,1,1,0,0,1,1,0,0,1,0,1,0,0,0,0,1,1,0,0,0,0,0,0,1,0,1,0,0,1,1,1,0,0,0,0,1,0,0,0,0,0,0,0,0,0,0,0,1,0,0,0,0,1,1,0,0,0,0,1,0,0,0,0,0,1,0,0,0,1,0,0,0,1,1,0,0,0,1,0,0,0,0,1,0,0,0,0,0,0,0,0,0,0,0,1,0,0,0,1,1,0,0,0,0,1,1,0,0,0,1,0,0,0,1,0,0,1,0,0,1,1,0,1,0,0,0,0,1,0,0,0,0,0,1,0,0,1,0,1,1,1,0,1,1,0,0,0,0,1,0,0,0,0,0,0,0,1,1,0,0,0,0,0,0,1,0,0,0,0,0,0,0,0,0,0,0,0,0,0,0,0,0,0,1,0,1,1,0,0,0,0,0,1,0,0,0,0,0,1,0,1,0,0,0,0,0,0,1,0,0,1,0,1,0,1,0,0,0,1,0,0,0,0,0,0,0,1,0,0,0,0,0,0,0,0,0,1,1,0,0,0,0,0,0,0,0,0,0,0,0,0,0,0,0,0,0,0,0,0,0,0,0,0,0,0,0,0,0,0,0,0,0,0,0,0,0,0,0,0,0,0,0,0,0,0,0,0,0,0,0,0,0,0,0,0,0,0,0,0,0,0,0,0,0,0,0,0,0,0,0,0,0,0,0,0,0,0,0,0,0,0,0,0,0,0,0,0,0,0,0,0,0,0,0,0,0,0,0,0,0,0,0,0,0,0,0,0,0,0,0,0,0,0,0,0,0,0,0,0,0,0,0,0,0,0,0,0,0,0,0],"id":1,"left_children":[1,3,5,7,9,11,13,15,17,19,21,23,25,27,29,31,33,-1,35,37,39,41,43,45,47,49,51,53,55,57,59,61,-1,63,-1,-1,65,67,69,71,73,75,77,79,81,83,-1,-1,85,87,89,91,93,-1,95,-1,97,99,-1,101,103,105,107,-1,-1,-1,-1,109,111,-1,-1,113,115,117,119,121,123,125,127,129,131,133,-1,135,137,139,-1,141,143,145,147,149,151,153,155,157,-1,159,-1,-1,161,163,165,-1,-1,-1,-1,167,169,171,173,-1,-1,175,177,179,181,183,-1,185,187,189,-1,191,193,195,197,-1,199,201,-1,203,205,-1,207,209,211,213,-1,215,-1,217,219,-1,221,223,225,227,229,231,-1,233,235,237,239,241,243,245,247,-1,-1,249,251,253,255,-1,257,259,261,-1,263,265,267,-1,-1,269,271,273,275,277,279,281,283,285,-1,287,289,-1,-1,-1,291,293,295,-1,-1,297,299,301,303,-1,305,307,309,311,313,315,317,319,321,323,-1,-1,-1,325,327,329,331,-1,-1,333,-1,335,337,339,341,343,345,347,-1,349,351,353,355,357,359,361,363,365,367,-1,-1,369,-1,371,-1,-1,373,375,-1,-1,-1,377,379,381,383,-1,-1,-1,-1,-1,-1,-1,-1,-1,-1,-1,-1,-1,-1,-1,-1,-1,-1,-1,-1,-1,-1,-1,-1,-1,-1,-1,-1,-1,-1,-1,-1,-1,-1,-1,-1,-1,-1,-1,-1,-1,-1,-1,-1,-1,-1,-1,-1,-1,-1,-1,-1,-1,-1,-1,-1,-1,-1,-1,-1,-1,-1,-1,-1,-1,-1,-1,-1,-1,-1,-1,-1,-1,-1,-1,-1,-1,-1,-1,-1,-1,-1,-1,-1,-1,-1,-1,-1,-1,-1,-1,-1,-1,-1,-1,-1,-1,-1,-1,-1,-1,-1,-1,-1,-1,-1,-1,-1,-1,-1,-1,-1,-1,-1,-1,-1,-1,-1,-1,-1,-1,-1,-1,-1,-1,-1,-1,-1,-1,-1],"loss_changes":[1.5667881E3,1.3746917E3,3.117282E2,3.494043E1,4.2463074E2,1.6255136E2,8.744824E1,1.9669678E1,3.0403883E1,1.9603064E2,1.3471718E2,2.435434E1,1.3038705E2,4.4799282E1,2.6085327E1,1.5984253E1,2.6104485E1,0E0,1.0119015E1,2.6332375E1,1.6341321E2,6.720748E1,8.336654E1,1.5414398E1,3.1770576E1,1.3538911E2,8.621486E1,2.9015045E1,3.357803E1,2.9930016E1,6.203003E0,1.0449585E1,0E0,1.0149603E0,0E0,0E0,1.5478897E0,1.9191635E1,2.1494759E1,1.3891699E2,5.559385E1,4.726755E1,6.3555313E1,8.11146E1,1.3448952E1,7.1838684E0,0E0,0E0,1.3197367E1,3.3807594E1,7.787949E1,6.116009E1,3.388327E1,0E0,2.0981209E1,0E0,1.4598419E1,2.8322357E1,0E0,7.9260254E0,1.2176669E1,5.956421E-1,1.2188156E1,0E0,0E0,0E0,0E0,6.869972E0,2.0910572E1,0E0,0E0,1.3576927E2,8.486914E1,3.312735E1,5.350593E1,3.6450424E1,1.7615627E1,3.6514023E1,2.9329132E1,2.9149845E1,5.2752464E1,1.3447723E1,0E0,6.043274E0,2.035923E1,1.0848324E1,0E0,3.1176872E1,3.1124048E1,5.221911E1,3.3914368E1,1.4670692E1,7.020878E1,2.382741E1,3.0259674E1,1.6371857E1,0E0,1.027133E0,0E0,0E0,1.0643616E1,5.081909E0,1.68041E1,0E0,0E0,0E0,0E0,1.04109955E1,1.7631239E1,6.146774E-1,6.8144855E0,0E0,0E0,6.7993744E1,7.212431E1,6.207837E1,4.5414566E1,2.2020048E1,0E0,3.9984604E1,1.6647682E0,1.9229055E1,0E0,5.9101143E0,1.1196072E1,3.653174E1,4.5046448E1,0E0,3.1826914E1,2.1243233E1,0E0,6.324955E1,2.251572E1,0E0,1.1742233E1,4.195099E0,6.0985656E0,1.5383644E1,0E0,4.2587357E0,0E0,1.9862982E1,1.3958908E1,0E0,2.711422E1,2.7555239E1,5.7010513E1,2.0768093E1,2.755645E1,6.785797E0,0E0,3.3809082E1,4.5480637E1,2.4231262E1,1.4920744E1,2.2050789E1,2.5998291E1,2.2956263E1,1.0871445E1,0E0,0E0,1.9121805E1,4.261078E0,3.2055664E0,1.5645989E1,0E0,1.0119343E0,2.2428997E1,3.483261E0,0E0,1.2530868E1,4.6337128E-1,2.9432306E0,0E0,0E0,2.0774967E1,3.858893E1,3.6892136E1,1.8780529E1,4.4664684E1,2.4059082E1,3.8643944E1,2.6368607E1,1.7570442E1,0E0,6.2762394E0,3.9750626E1,0E0,0E0,0E0,1.2069267E1,7.1441517E0,1.5666428E0,0E0,0E0,2.384888E1,3.694925E1,1.8883587E1,2.1835089E1,0E0,1.960351E1,2.5129513E1,1.8913918E1,2.9897987E1,1.4171066E0,1.7676865E1,3.838637E1,5.0547157E1,6.02005E0,2.2326355E0,0E0,0E0,0E0,1.0049067E1,5.033394E0,2.6196022E0,5.9672246E0,0E0,0E0,1.1460373E1,0E0,1.2676655E1,1.5172161E1,2.2505909E1,2.1341625E1,3.7135742E1,2.7548483E1,1.4521336E1,0E0,2.181335E1,1.7625643E1,2.6482086E0,1.3846695E1,1.8911121E1,1.9095856E1,1.6440079E1,2.2529598E1,1.7437592E1,1.4354622E1,0E0,0E0,1.7583675E1,0E0,8.215546E0,0E0,0E0,1.3871103E1,1.0600281E1,0E0,0E0,0E0,5.9430156E0,3.270401E0,2.2338867E0,9.280995E0,0E0,0E0,0E0,0E0,0E0,0E0,0E0,0E0,0E0,0E0,0E0,0E0,0E0,0E0,0E0,0E0,0E0,0E0,0E0,0E0,0E0,0E0,0E0,0E0,0E0,0E0,0E0,0E0,0E0,0E0,0E0,0E0,0E0,0E0,0E0,0E0,0E0,0E0,0E0,0E0,0E0,0E0,0E0,0E0,0E0,0E0,0E0,0E0,0E0,0E0,0E0,0E0,0E0,0E0,0E0,0E0,0E0,0E0,0E0,0E0,0E0,0E0,0E0,0E0,0E0,0E0,0E0,0E0,0E0,0E0,0E0,0E0,0E0,0E0,0E0,0E0,0E0,0E0,0E0,0E0,0E0,0E0,0E0,0E0,0E0,0E0,0E0,0E0,0E0,0E0,0E0,0E0,0E0,0E0,0E0,0E0,0E0,0E0,0E0,0E0,0E0,0E0,0E0,0E0,0E0,0E0,0E0,0E0,0E0,0E0,0E0,0E0,0E0,0E0,0E0,0E0,0E0,0E0,0E0,0E0,0E0,0E0,0E0,0E0,0E0,0E0,0E0,0E0,0E0,0E0],"parents":[2147483647,0,0,1,1,2,2,3,3,4,4,5,5,6,6,7,7,8,8,9,9,10,10,11,11,12,12,13,13,14,14,15,15,16,16,18,18,19,19,20,20,21,21,22,22,23,23,24,24,25,25,26,26,27,27,28,28,29,29,30,30,31,31,33,33,36,36,37,37,38,38,39,39,40,40,41,41,42,42,43,43,44,44,45,45,48,48,49,49,50,50,51,51,52,52,54,54,56,56,57,57,59,59,60,60,61,61,62,62,67,67,68,68,71,71,72,72,73,73,74,74,75,75,76,76,77,77,78,78,79,79,80,80,81,81,83,83,84,84,85,85,87,87,88,88,89,89,90,90,91,91,92,92,93,93,94,94,95,95,97,97,100,100,101,101,102,102,107,107,108,108,109,109,110,110,113,113,114,114,115,115,116,116,117,117,119,119,120,120,121,121,123,123,124,124,125,125,126,126,128,128,129,129,131,131,132,132,134,134,135,135,136,136,137,137,139,139,141,141,142,142,144,144,145,145,146,146,147,147,148,148,149,149,151,151,152,152,153,153,154,154,155,155,156,156,157,157,158,158,161,161,162,162,163,163,164,164,166,166,167,167,168,168,170,170,171,171,172,172,175,175,176,176,177,177,178,178,179,179,180,180,181,181,182,182,183,183,185,185,186,186,190,190,191,191,192,192,195,195,196,196,197,197,198,198,200,200,201,201,202,202,203,203,204,204,205,205,206,206,207,207,208,208,209,209,213,213,214,214,215,215,216,216,219,219,221,221,222,222,223,223,224,224,225,225,226,226,227,227,229,229,230,230,231,231,232,232,233,233,234,234,235,235,236,236,237,237,238,238,241,241,243,243,246,246,247,247,251,251,252,252,253,253,254,254],"right_children":[2,4,6,8,10,12,14,16,18,20,22,24,26,28,30,32,34,-1,36,38,40,42,44,46,48,50,52,54,56,58,60,62,-1,64,-1,-1,66,68,70,72,74,76,78,80,82,84,-1,-1,86,88,90,92,94,-1,96,-1,98,100,-1,102,104,106,108,-1,-1,-1,-1,110,112,-1,-1,114,116,118,120,122,124,126,128,130,132,134,-1,136,138,140,-1,142,144,146,148,150,152,154,156,158,-1,160,-1,-1,162,164,166,-1,-1,-1,-1,168,170,172,174,-1,-1,176,178,180,182,184,-1,186,188,190,-1,192,194,196,198,-1,200,202,-1,204,206,-1,208,210,212,214,-1,216,-1,218,220,-1,222,224,226,228,230,232,-1,234,236,238,240,242,244,246,248,-1,-1,250,252,254,256,-1,258,260,262,-1,264,266,268,-1,-1,270,272,274,276,278,280,282,284,286,-1,288,290,-1,-1,-1,292,294,296,-1,-1,298,300,302,304,-1,306,308,310,312,314,316,318,320,322,324,-1,-1,-1,326,328,330,332,-1,-1,334,-1,336,338,340,342,344,346,348,-1,350,352,354,356,358,360,362,364,366,368,-1,-1,370,-1,372,-1,-1,374,376,-1,-1,-1,378,380,382,384,-1,-1,-1,-1,-1,-1,-1,-1,-1,-1,-1,-1,-1,-1,-1,-1,-1,-1,-1,-1,-1,-1,-1,-1,-1,-1,-1,-1,-1,-1,-1,-1,-1,-1,-1,-1,-1,-1,-1,-1,-1,-1,-1,-1,-1,-1,-1,-1,-1,-1,-1,-1,-1,-1,-1,-1,-1,-1,-1,-1,-1,-1,-1,-1,-1,-1,-1,-1,-1,-1,-1,-1,-1,-1,-1,-1,-1,-1,-1,-1,-1,-1,-1,-1,-1,-1,-1,-1,-1,-1,-1,-1,-1,-1,-1,-1,-1,-1,-1,-1,-1,-1,-1,-1,-1,-1,-1,-1,-1,-1,-1,-1,-1,-1,-1,-1,-1,-1,-1,-1,-1,-1,-1,-1,-1,-1,-1,-1,-1,-1],"split_conditions":[5.8222973E-1,7.5E-2,9.33E0,1.415E0,6.935E0,6.9300003E0,3.05E-1,5E-3,7.034E1,1.0045E1,3.5749998E0,7.6524994E1,3.9499998E-1,4.6290016E0,3.5545E1,1.05000004E-1,1.8665E1,-9.831406E-2,4.3038574E1,7.5655E1,1.5999079E1,4.3051872E1,8.0685E1,8.1225E1,9.897E1,1.2055E1,6.6979996E1,1.028E1,4.75E-1,1.755299E1,5.2072034E0,2.473E1,-6.912947E-2,6.94E2,-9.351946E-2,-6.326657E-2,8.587075E0,3.05E-1,1.3501E1,7.0852554E1,9.475E0,2.8603997E0,1.685E0,5.6560715E1,6.655E0,4.84E0,-7.076441E-2,-9.6116416E-2,4.7741137E0,1.4709999E1,2.4619999E1,3.1715E1,2.5349998E0,-9.24469E-2,3.7708006E0,-1.0707017E-1,8.802337E1,2.6223714E0,-9.136483E-2,4.125E0,5.8800003E1,4.724525E1,1.632E1,2.820418E-2,9.414115E-2,2.6862934E-2,9.956446E-2,6.54805E1,7.35E-1,-1.0113673E-1,6.760305E-2,3.8099585E0,1.695E0,1.6505001E1,1.89545E2,2.15E-1,1.077E2,3.3795E1,7.301002E1,1.62965E2,8.522067E1,1.5815001E1,-7.221098E-2,7.02E0,4.999409E1,1.6271107E1,-7.38321E-2,5.1225E1,2.0605E1,3.7141175E0,4.2755E1,1.11185E2,1.925E0,1.11255005E2,4.71E0,7.802955E1,-8.483315E-2,6.5354996E1,-7.817597E-2,-8.774963E-2,5.05E-1,1.9414223E2,1.16577095E2,8.638112E-2,-7.740408E-2,3.9507262E-2,1.05125345E-1,1.115E1,8.65E1,9.092416E0,1.0002404E-6,-9.2814885E-2,8.757695E-2,5E-3,8.728298E0,7.811395E1,2.65E-1,1.05000004E-1,-9.868179E-2,3.275E0,6.0690002E1,7.384E1,-1.08158745E-1,9.82E0,7.174472E0,3.9499998E-1,7.75E1,-1.0176443E-1,5.1815002E1,1.14999995E-1,-9.616363E-2,7.79E0,4.2825E1,-6.950878E-2,2.47016E0,1.743045E2,-4.5878787E0,4.773139E1,-8.487096E-2,6.355E0,-6.553151E-2,3.81E0,7.1549997E0,9.661625E-2,7.517742E0,1.305E0,8.174999E0,1.6369999E1,9.0054886E1,1.74E1,-7.054913E-2,2.0029857E2,4.266762E0,7.1136904E-1,1.092E1,8.0435E1,4.864273E0,-2.9993548E0,2.186E2,9.470864E-2,2.8391225E-2,2.2119999E1,6.2451787E0,8.354994E1,1.9115002E1,-8.00564E-2,4.366807E0,7.55E0,7.029E1,9.3860276E-2,7.1E0,6.93E1,1.05321014E2,7.0374586E-2,-6.868995E-2,8.188045E1,3.207778E0,2.55E0,6.7339554E1,5.4449997E0,9.957413E1,7.115E0,6.0403954E1,1.8045E1,-8.9060776E-2,2.6683917E2,9.5853546E1,2.8480548E-2,1.0279277E-1,-8.881266E-2,8.738378E0,5.0564217E1,2.815E0,-9.0839244E-2,6.9744505E-2,4.983571E0,1.8085E1,2.295E0,3.7935E1,-9.850319E-2,6.412058E1,8.342E1,7.503E1,5.63E1,6.1698486E1,1.757693E1,4.3643064E0,8.7135E1,3.5191797E2,1.2181E2,1.7030958E-2,6.962795E-2,-6.576509E-2,8.474091E0,4.380345E0,1.25E-1,1.047865E2,-1.0070145E-1,6.03963E-2,6.0000002E-2,-7.111262E-2,7.2873907E0,6.877119E1,8.7821424E-1,8.815038E0,8.805E0,1.1221763E2,3.947E1,-8.440914E-2,1.0783029E2,1.2982692E0,1.1440001E1,6.595896E1,1.85E-1,2.181923E0,1.765E0,9.807431E1,1.3695E1,3.1549265E0,-1.0333085E-1,6.991135E-2,1.08619995E2,-9.189909E-2,1.5E-1,-8.2526505E-2,-9.555429E-2,2.2599275E2,5.788E1,-6.480508E-2,-8.81951E-2,7.70809E-2,8.848561E0,7.2825E1,3.9499998E-1,3.631828E1,9.440891E-2,-7.688362E-2,2.794615E-2,9.166213E-2,6.952186E-2,-8.9219846E-2,9.547195E-2,1.7036766E-2,6.946979E-2,-9.444631E-2,1.0608975E-1,4.054993E-2,7.7960263E-3,9.017601E-2,3.400905E-2,-5.453763E-2,-3.8413756E-2,-9.425489E-2,1.4068497E-2,1.0022772E-1,7.1891926E-2,-1.1134547E-1,-8.6919405E-2,4.0378816E-2,-9.314593E-2,-6.274203E-2,2.5171617E-2,-6.778031E-2,-9.5006846E-2,4.9651057E-2,5.6635387E-2,-8.4276736E-2,-1.7172951E-3,9.662805E-2,4.9472703E-3,-7.285339E-2,8.008644E-2,-7.0061766E-2,7.16156E-2,-7.0726864E-2,9.459079E-2,2.7076421E-2,-9.5294096E-2,5.4147113E-2,-1.10459745E-1,-2.7179662E-2,8.305649E-2,-7.986348E-2,6.3994075E-3,-1.0821375E-1,6.190943E-2,-4.8894607E-2,-1.0059547E-1,8.0168456E-2,5.278349E-2,-8.638675E-2,2.8813787E-2,-9.5109336E-2,9.916767E-2,2.7886901E-2,-8.380887E-2,5.5249088E-2,4.6497416E-2,-7.5439565E-2,9.412292E-2,-6.772278E-2,1.0405527E-1,1.0096506E-2,1.0352251E-1,2.8034199E-2,-8.554537E-2,6.962795E-2,9.404451E-2,7.8328E-3,1.0626799E-1,3.9112244E-2,6.973132E-2,-6.4220764E-2,3.7036996E-2,9.277482E-2,-3.2492463E-2,8.7888956E-2,-9.076466E-2,7.215358E-2,5.6606747E-2,-1.05552E-1,6.870609E-2,-8.6183675E-2,-6.5084666E-2,6.0641374E-2,5.7248358E-2,-9.518072E-2,9.208948E-2,-2.3183502E-2,3.4372643E-2,-5.369739E-2,7.215358E-2,-1.0969332E-1,4.1214004E-2,1.05706185E-1,8.810319E-2,-8.1608534E-2,-6.2508605E-2,-1.1238352E-2,9.50142E-2,-8.0188625E-2,-3.4713678E-2,7.469252E-2,7.5430155E-2,-8.2976945E-2,-6.476922E-3,7.191858E-2,7.044111E-2,-1.018542E-1,5.7231646E-2,-8.3684415E-2,3.623242E-4,9.9743746E-2,8.42737E-2,-7.261667E-2,3.3979718E-2,9.1339774E-2,-6.410504E-2,6.95812E-2,9.614091E-2,5.0307006E-2,5.7283185E-2,1.0294114E-1,8.62341E-2,-6.786595E-2],"split_indices":[58,47,25,35,25,45,38,47,52,46,48,32,42,19,43,29,46,0,16,52,23,16,46,43,32,32,46,25,62,23,19,46,0,18,0,0,2,38,23,16,32,1,47,5,27,45,0,0,19,45,55,46,48,0,58,0,9,17,0,58,32,5,32,0,0,0,0,5,38,0,0,1,47,43,43,29,32,43,9,32,9,32,0,26,16,23,0,52,46,19,46,32,47,32,25,9,0,52,0,0,42,16,3,0,0,0,0,23,56,2,1,0,0,35,2,18,29,29,0,19,52,54,0,25,17,47,56,0,52,29,0,35,46,0,17,56,1,5,0,45,0,35,27,0,2,58,48,45,56,45,0,56,19,1,26,52,19,1,32,0,0,25,23,5,46,0,19,23,46,0,2,52,3,0,0,9,17,47,18,23,9,45,5,45,0,18,56,0,0,0,2,5,48,0,0,17,45,48,46,0,5,52,46,55,5,23,19,46,18,9,0,0,0,2,19,29,3,0,0,26,0,2,16,58,2,27,3,43,0,3,23,45,56,29,58,35,3,45,19,0,0,46,0,38,0,0,18,46,0,0,0,2,52,36,16,0,0,0,0,0,0,0,0,0,0,0,0,0,0,0,0,0,0,0,0,0,0,0,0,0,0,0,0,0,0,0,0,0,0,0,0,0,0,0,0,0,0,0,0,0,0,0,0,0,0,0,0,0,0,0,0,0,0,0,0,0,0,0,0,0,0,0,0,0,0,0,0,0,0,0,0,0,0,0,0,0,0,0,0,0,0,0,0,0,0,0,0,0,0,0,0,0,0,0,0,0,0,0,0,0,0,0,0,0,0,0,0,0,0,0,0,0,0,0,0,0,0,0,0,0,0,0,0,0,0],"split_type":[0,0,0,0,0,0,0,0,0,0,0,0,0,0,0,0,0,0,0,0,0,0,0,0,0,0,0,0,0,0,0,0,0,0,0,0,0,0,0,0,0,0,0,0,0,0,0,0,0,0,0,0,0,0,0,0,0,0,0,0,0,0,0,0,0,0,0,0,0,0,0,0,0,0,0,0,0,0,0,0,0,0,0,0,0,0,0,0,0,0,0,0,0,0,0,0,0,0,0,0,0,0,0,0,0,0,0,0,0,0,0,0,0,0,0,0,0,0,0,0,0,0,0,0,0,0,0,0,0,0,0,0,0,0,0,0,0,0,0,0,0,0,0,0,0,0,0,0,0,0,0,0,0,0,0,0,0,0,0,0,0,0,0,0,0,0,0,0,0,0,0,0,0,0,0,0,0,0,0,0,0,0,0,0,0,0,0,0,0,0,0,0,0,0,0,0,0,0,0,0,0,0,0,0,0,0,0,0,0,0,0,0,0,0,0,0,0,0,0,0,0,0,0,0,0,0,0,0,0,0,0,0,0,0,0,0,0,0,0,0,0,0,0,0,0,0,0,0,0,0,0,0,0,0,0,0,0,0,0,0,0,0,0,0,0,0,0,0,0,0,0,0,0,0,0,0,0,0,0,0,0,0,0,0,0,0,0,0,0,0,0,0,0,0,0,0,0,0,0,0,0,0,0,0,0,0,0,0,0,0,0,0,0,0,0,0,0,0,0,0,0,0,0,0,0,0,0,0,0,0,0,0,0,0,0,0,0,0,0,0,0,0,0,0,0,0,0,0,0,0,0,0,0,0,0,0,0,0,0,0,0,0,0,0,0,0,0,0,0,0,0,0,0,0,0,0,0,0,0,0,0,0,0,0,0],"sum_hessian":[4.569067E3,2.7907957E3,1.7782714E3,3.3296985E2,2.4578257E3,1.2003931E3,5.778783E2,3.170923E2,1.5877555E1,1.7904644E3,6.673614E2,1.8447218E2,1.0159209E3,1.1462813E2,4.6325015E2,3.0579065E2,1.13016405E1,5.9841514E0,9.893404E0,5.398217E1,1.7364823E3,2.9066418E2,3.7669717E2,1.5637259E2,2.809959E1,5.1927234E2,4.9664856E2,9.359457E1,2.103356E1,7.296476E1,3.902854E2,3.0429416E2,1.4965048E0,7.0614543E0,4.2401867E0,1.246561E0,8.646843E0,4.457389E1,9.408278E0,1.5161129E3,2.2036931E2,6.43985E1,2.262657E2,2.9221735E2,8.4479836E1,1.5487386E2,1.4987311E0,5.237685E0,2.2861904E1,1.3406628E2,3.852061E2,2.3486317E2,2.617854E2,3.992079E0,8.960249E1,1.1972218E1,9.061343E0,6.92225E1,3.742258E0,3.853825E2,4.902896E0,1.769228E2,1.2737134E2,2.3257315E0,4.7357225E0,2.3270144E0,6.319828E0,3.717318E1,7.4007125E0,5.743142E0,3.665137E0,3.7910168E2,1.1370112E3,7.2206856E1,1.4816245E2,2.8460566E1,3.593793E1,1.7335184E2,5.2913864E1,1.4476881E2,1.4744853E2,8.298094E1,1.498889E0,1.114202E2,4.3453667E1,2.1114775E1,1.7471309E0,9.636467E1,3.770161E1,2.8001437E2,1.05191696E2,3.8688526E1,1.9617464E2,6.9166084E1,1.9261931E2,8.685858E1,2.7439086E0,7.0663023E0,1.9950408E0,3.2431126E0,6.597939E1,3.7424197E2,1.114053E1,3.1564002E0,1.7464958E0,2.0768764E0,1.7484593E2,1.1656905E2,1.0802281E1,3.4096657E1,3.076522E0,4.2407346E0,3.159978E0,2.5357607E2,1.2552561E2,9.7851746E2,1.584938E2,6.646715E1,5.7397118E0,1.3768E2,1.0482453E1,1.5731447E1,1.2729118E1,3.111255E1,4.8253794E0,1.320048E2,4.134702E1,6.489396E0,4.6424465E1,1.4002591E2,4.742909E0,7.450838E1,7.294016E1,1.4970312E0,8.148392E1,1.0859489E2,2.8253074E0,4.120887E1,2.2447946E0,1.9866102E1,1.2486724E0,9.405836E0,8.695883E1,8.152415E0,2.9549194E1,4.2289753E1,2.3772462E2,3.7521847E1,6.766985E1,3.7190357E1,1.498168E0,1.18446045E2,7.77286E1,6.1098362E1,8.067725E0,6.892481E1,1.23694496E2,1.4876806E1,7.198177E1,4.738767E0,2.3275354E0,8.475536E0,5.7503853E1,3.6750784E2,6.7341194E0,2.2468605E0,8.893669E0,2.0197767E1,9.6371284E1,4.7343054E0,6.067976E0,2.8103563E1,5.993094E0,1.5798924E0,1.4966296E0,4.235056E1,2.1122551E2,1.06961685E2,1.856393E1,3.908806E1,9.394294E2,1.2779409E2,3.0699715E1,6.2975216E1,3.4919283E0,9.900438E0,1.2777956E2,2.3280506E0,8.154403E0,3.2440624E0,1.2487385E1,3.079479E0,2.8033073E1,3.246887E0,1.5784922E0,1.5392549E1,1.1661227E2,1.6646755E1,2.4700264E1,5.489153E0,4.0935314E1,1.0147797E1,1.2987811E2,6.5861244E1,8.647132E0,3.7015022E1,3.5925137E1,3.2680405E1,4.880351E1,1.06018326E2,2.5765638E0,1.5782028E0,1.2471044E0,4.3227434E0,3.6886127E1,1.7039457E1,2.8266432E0,5.493158E0,3.9126782E0,8.546008E1,1.4987514E0,1.1399343E1,1.8149853E1,1.1904256E1,3.0385498E1,2.1033922E2,2.73854E1,3.5273685E1,2.2481608E0,5.5599968E1,1.2069884E1,3.2031467E1,5.1588926E0,1.0646247E2,1.1983574E1,6.200579E1,1.5722807E1,5.4021786E1,7.076577E0,6.4888353E0,1.5788897E0,6.567811E1,3.246703E0,1.21447174E2,2.2473197E0,4.488662E0,1.03881445E1,7.073367E1,1.2481052E0,3.2420382E0,5.2334976E0,2.8261151E0,5.467774E1,3.6310474E2,4.4031124E0,4.7373157E0,1.9968034E0,2.3275847E0,6.566084E0,1.720583E1,2.9919379E0,9.37942E1,2.5770898E0,1.5777949E0,4.490181E0,2.6021423E1,2.0821402E0,2.8275208E0,3.165573E0,2.9449404E1,1.2901155E1,6.732094E1,1.4390457E2,8.515848E1,2.1803204E1,1.5821682E0,1.6981762E1,1.5801612E1,2.3286448E1,8.235797E2,1.15849686E2,1.8315441E1,1.0947865E2,4.4896665E0,2.6210049E1,6.0478374E1,2.4968407E0,3.328661E0,6.571777E0,3.1022512E1,9.675705E1,1.0989467E1,1.4979179E0,1.5818659E0,1.497613E0,2.570492E1,2.328152E0,4.739618E0,1.0652931E1,9.141448E1,2.5197783E1,1.4401736E1,2.2450204E0,9.231788E0,1.5468475E1,3.486344E1,6.0718727E0,6.7366147E0,3.4111814E0,1.27132126E2,2.7459881E0,7.489646E0,5.8371597E1,6.318458E0,2.3286738E0,2.7432656E0,3.427176E1,1.5553265E1,2.0371872E1,2.3861992E1,8.818413E0,4.5973335E1,2.8301716E0,1.036915E2,2.326825E0,2.7445405E0,1.5782028E0,3.4060818E1,2.8253107E0,1.263424E1,4.405218E0,1.5784599E0,1.2481835E0,1.8894325E1,6.656576E1,4.5760965E0,6.823246E0,1.6567442E1,1.58241E0,3.911774E0,7.9924817E0,2.7638592E1,2.7469049E0,2.0226746E2,8.071759E0,2.3140728E1,4.244673E0,3.119675E1,4.076935E0,4.344411E1,1.2155857E1,1.58241E0,1.0487474E1,4.4088726E0,2.7622593E1,3.1612997E0,1.9975929E0,6.1179134E1,4.5283333E1,9.985401E0,1.9981728E0,4.8313174E0,5.7174473E1,3.4095376E0,1.231327E1,1.3321082E1,4.0700703E1,1.5800242E0,5.496553E0,6.318218E1,2.4959273E0,3.0790787E0,1.18368095E2,8.642676E0,1.745468E0,1.6792973E1,5.3940697E1,1.248031E0,1.5780841E0,4.4038105E1,1.0639635E1,8.068629E0,3.550361E2,3.1557925E0,1.2473199E0],"tree_param":{"num_deleted":"0","num_feature":"63","num_nodes":"385","size_leaf_vector":"0"}},{"base_weights":[-1.5220007E-4,-5.7397586E-1,5.456523E-1,6.756226E-1,-8.092894E-1,2.565155E-1,1.2941554E0,-2.8655604E-1,1.200345E0,-1.0373484E0,-1.6380517E-1,7.990455E-1,-6.05225E-2,7.721058E-1,1.4891031E0,-8.6060685E-1,5.2045155E-1,5.0767356E-1,1.5590233E0,-1.1626308E0,-7.8513235E-2,1.2514968E0,-3.0812943E-1,1.5401435E0,6.81578E-1,9.593953E-1,-2.655303E-1,1.0231307E0,-2.3139219E-1,-1.3901309E0,1.5042593E0,1.9177653E-2,-1.5163163E0,7.943258E-1,-9.875829E-1,-1.3279332E0,8.949999E-1,1.621819E0,-4.5681375E-1,-1.2637672E0,9.737074E-2,1.1403228E0,-4.0819803E-1,-1.0971988E0,1.3559773E0,4.7682583E-1,-4.7805524E-1,1.5926485E0,-1.0820727E0,1.3349521E0,5.5334544E-1,5.722476E-1,1.4783382E0,1.9192293E-2,-8.8633585E-1,1.0790758E0,-1.3567117E0,-1.7231545E0,4.2987514E-1,7.895092E-1,1.5474677E0,6.303281E-1,-1.1808331E0,-1.8013477E0,2.8023595E-1,-7.5874245E-1,1.0536983E0,1.1028911E0,-1.6156307E0,-1.7163768E0,1.1048076E0,-4.418307E-1,1.2280662E0,1.6525321E0,-1.0726216E0,1.1153276E0,-1.4156415E0,-1.3566449E0,-4.7268704E-1,1.6233119E0,-2.595249E-1,1.3847883E0,-3.8105232E-1,1.210056E0,-6.1184347E-1,1.4520445E0,-1.0745302E0,-1.1981924E0,7.493729E-1,-7.684325E-1,1.5119448E-1,1.6415039E0,1.5183687E-1,1.4293109E0,-1.3489715E0,1.7474313E-1,9.591705E-1,6.9825846E-1,-1.6041164E0,1.5470781E0,-1.153375E0,4.3469948E-1,-5.126525E-1,-1.0272988E0,5.095205E-1,5.23319E-1,1.2847441E0,-1.4758961E0,8.3744544E-1,-1.5661675E0,1.2865094E0,1.1497229E0,1.6054827E0,-1.4148629E0,1.0225306E0,1.1497494E0,-1.6787195E0,1.5585366E0,-1.3224657E0,1.1144934E0,-1.5005809E0,1.3028588E0,-5.1940084E-1,-1.5935924E0,6.919793E-1,1.4520484E0,-1.9284442E-1,1.6967132E0,1.1856128E0,-1.3965058E0,1.0578267E-2,-8.22628E-1,9.605442E-1,1.7483381E0,5.653887E-1,-7.8421456E-1,5.386985E-1,1.8041124E0,7.939087E-1,1.3499258E0,-1.4018365E0,1.7027215E0,-1.261449E0,-9.525617E-1,6.177666E-1,4.029289E-2,1.5603131E0,8.8014346E-1,-1.680789E0,1.2210121E0,-1.627435E-1,-9.3896824E-1,2.056875E-1,-7.0348364E-1,9.8762107E-1,1.6837304E0,2.6414493E-1,1.1489437E0,-1.0599372E0,1.4938463E0,-1.2618677E-1,-6.285318E-1,4.0119073E-1,-3.7520948E-1,1.091405E0,9.2090183E-1,-4.0909806E-1,1.6271869E0,-1.2435993E-1,5.589952E-2,9.804673E-1,-7.466287E-1,1.0482589E0,-4.0375674E-1,-1.3659757E0,1.534384E0,-2.4029028E-1,1.0334972E0,-1.1376126E0,1.3417565E0,-1.2641904E0,-1.1668711E0,1.0389048E0,1.5339124E0,-1.2260673E0,-4.6845493E-1,1.2834117E0,1.6140116E0,2.452408E-1,1.3531481E0,-1.2186741E0,1.4499061E0,-1.1355217E0,-1.4526577E0,1.3029045E0,-1.1567359E0,1.4221668E0,1.6833128E0,9.5964676E-1,1.4601916E0,-1.532534E0,6.257984E-1,1.7091329E0,2.3895016E-1,1.6518939E0,3.0498162E-1,-1.4251946E0,5.3773594E-1,-1.6254147E0,1.6164026E0,-9.716595E-1,1.4124233E0,-6.168258E-1,-1.3748732E0,1.2588124E-1,9.1300493E-1,-1.5512278E0,1.5270274E0,-5.26656E-1,1.8302269E0,7.174958E-1,-1.11543E0,1.2142463E0,-1.4534217E0,1.0157926E0,-1.1201547E0,1.146819E0,1.6453737E0,2.4001808E-1,1.3275797E0,-1.1573511E0,-1.2341541E0,7.029464E-1,6.310095E-1,-1.0736749E0,-1.6624466E0,7.1420985E-1,-1.5489284E0,-5.5984624E-2,-4.61178E-2,1.4625065E0,6.025499E-1,1.70531E0,1.5407884E0,1.2900071E-1,1.1080095E0,-1.2348981E0,3.4888017E-1,-1.2928555E0,-2.1236971E-1,7.2533965E-1,-1.3588701E0,1.296357E0,-7.5139517E-1,1.1483885E0,2.2298533E-1,1.3201487E0,1.291753E0,-1.2537756E0,1.6868526E0,5.886815E-1,1.1229852E0,-1.2477909E0,-3.1403825E-1,1.1748897E0,-1.4411502E0,1.0393394E0,1.8588302E-1,-9.479296E-1,-1.399319E0,1.2974885E0,-1.0101494E0,3.4464478E-1,1.1148341E0,-1.46282E0,5.268913E-1,1.7389327E0,1.273762E0,-1.6580372E0,1.2395253E0,-1.2945143E0,1.1150869E0,-1.703497E0,1.436746E-1,1.4920915E0,-1.0213653E0,1.2228725E0,1.6399583E0,4.2179573E-1,-1.4219401E0,1.1013912E0,1.3573235E0,-1.0779563E0,2.513703E-1,1.6225716E0,1.7868702E-1,1.5714964E0,1.5383177E0,3.0213377E-1,5.8410203E-1,1.7435762E0,1.495994E0,-5.121315E-1,1.2140837E0,-1.2728767E0,-6.035989E-1,1.5424095E0,-7.6489097E-1,-1.5065799E0,9.6701026E-1,-1.4644396E0,-1.1538473E0,4.3605545E-1,9.589308E-2,1.6604495E0,-1.4742573E0,1.1188273E0,8.70811E-1,-1.8071727E0,-1.6456969E0,1.2973601E0,-1.2425249E0,1.1396186E0,6.118006E-1,1.7016017E0,-1.4305714E0,1.1608051E0,-4.8265484E-1,-1.8175294E0,1.6554655E0,3.6354592E-1,1.2713988E0,-1.2194058E0,5.8111364E-1,1.6914787E0,1.468612E0,-2.2031422E-1,1.1091255E0,-1.7267212E0,-1.2183142E0,1.0709414E0,-1.3870386E0,1.0989703E0,-1.1620107E0,6.401927E-1,-1.4488108E0,1.0442303E0,-1.7778008E0,1.1479667E0,3.787555E-1,-1.6477491E0,5.584316E-1,-1.610483E0,2.7304465E-1,1.6269851E0,1.727594E0,6.1651427E-1,4.8342535E-1,1.6001471E0,-1.0417374E0,1.1028911E0,-4.4235688E-1,1.3963197E0,-1.8791693E0,1.9158912E-1,-7.8670067E-1,9.456219E-1,-1.6667305E0,8.4862363E-1,4.4460014E-1,-1.7814382E0,4.1158813E-1,1.5817472E0,1.1013912E0,-1.5537097E0,4.2286924E-1,1.270971E0,9.765539E-1,-1.245815E0,-1.8870199E-1,1.4341092E0,1.0996131E0,-1.7113206E0,1.7103561E0,6.464517E-1,-1.1206902E0,1.3748178E0,-4.9511603E-1,1.3462229E0,-1.1686125E-1,1.3724048E0,1.141185E0,1.3947257E-1,-1.0284204E0,8.988574E-1,-1.0894132E0,2.8618088E-1,1.4273142E0,-1.0865248E0,-1.294145E0,1.1218528E0,-6.6163087E-1,1.3427675E0,2.843699E-1,1.5575905E0,-1.5293361E0,8.0694807E-1,3.18285E-1,1.6458358E0,2.1519525E-1,1.4653348E0,-1.5485169E0,1.0667292E0,8.740021E-1,1.6465248E0,1.5030612E0,-1.0903403E-1,1.4557298E0,-1.225976E-1,1.6442846E0,9.7370887E-1],"categories":[],"categories_nodes":[],"categories_segments":[],"categories_sizes":[],"default_left":[1,0,0,0,0,0,0,0,0,0,1,1,1,0,0,1,1,0,1,1,0,0,0,0,1,0,0,1,0,0,0,0,0,0,0,0,0,1,0,1,1,0,0,0,1,0,0,1,0,0,0,0,1,0,0,0,0,0,0,0,0,0,0,0,0,0,0,0,0,0,0,1,0,1,0,0,0,1,1,1,1,1,0,0,1,0,0,0,1,1,0,1,0,0,0,0,0,0,0,0,0,1,0,0,1,1,1,0,0,0,1,0,1,0,0,0,0,0,0,0,0,0,1,0,0,0,0,0,0,0,0,0,0,0,0,0,0,0,0,0,0,1,0,1,0,1,1,0,0,1,0,0,0,0,0,0,0,0,0,1,0,0,1,0,0,0,1,1,0,1,1,0,0,0,1,1,1,1,0,0,0,0,0,0,0,0,0,0,0,0,0,0,0,0,0,0,0,0,0,0,0,0,0,0,0,0,0,0,0,0,1,0,1,0,1,0,0,1,0,0,0,0,0,0,0,0,0,0,0,1,0,0,0,0,1,0,0,0,0,0,0,0,0,0,1,0,0,0,0,1,0,0,0,0,1,0,0,0,0,1,0,0,0,0,0,0,0,1,0,0,0,1,0,1,1,0,0,0,0,0,0,0,0,0,0,0,0,0,0,0,0,1,0,0,1,0,0,0,0,0,0,0,0,0,0,0,0,0,0,0,0,0,0,0,0,0,0,0,0,0,0,0,0,0,0,0,0,0,0,0,0,0,0,0,0,0,0,0,0,0,0,0,0,0,0,0,0,0,0,0,0,0,0,0,0,0,0,0,0,0,0,0,0,0,0,0,0,0,0,0,0,0,0,0,0,0,0,0,0,0,0,0,0,0,0,0,0,0,0,0,0,0,0,0,0,0,0,0,0,0,0,0,0,0,0,0,0,0,0,0,0,0,0,0,0,0,0,0,0,0,0],"id":2,"left_children":[1,3,5,7,9,11,13,15,17,19,21,23,25,27,29,31,33,35,37,39,41,43,45,47,49,51,53,55,57,-1,59,61,63,65,67,69,71,73,75,77,79,81,83,-1,85,87,89,91,-1,93,95,97,99,101,103,105,-1,-1,107,109,111,113,115,-1,117,119,121,-1,-1,-1,-1,123,125,127,-1,-1,-1,129,131,133,135,137,139,141,143,145,-1,147,149,151,153,155,157,159,-1,161,163,165,-1,167,-1,169,171,173,175,177,179,-1,181,-1,183,185,187,-1,189,-1,-1,-1,-1,-1,-1,191,193,-1,195,197,199,201,203,205,207,209,211,-1,-1,213,215,-1,217,-1,-1,219,-1,221,223,225,227,-1,-1,229,231,233,235,237,239,241,-1,-1,-1,243,245,247,249,251,253,255,257,259,261,263,265,267,269,271,273,275,277,279,281,283,-1,-1,285,287,-1,289,291,293,-1,295,-1,297,-1,-1,-1,-1,-1,299,301,-1,-1,-1,-1,303,-1,305,307,309,-1,-1,311,313,315,317,319,321,-1,323,325,-1,-1,327,329,-1,331,-1,-1,333,-1,335,-1,337,339,341,343,-1,345,347,349,351,353,-1,355,357,359,-1,-1,361,363,365,367,369,371,373,375,377,379,-1,381,383,385,-1,-1,387,389,-1,391,393,395,-1,397,399,401,403,405,-1,-1,407,-1,409,-1,-1,-1,411,413,-1,415,-1,-1,-1,-1,417,-1,-1,419,-1,-1,-1,-1,-1,-1,-1,-1,-1,-1,-1,-1,-1,-1,-1,-1,-1,-1,-1,-1,-1,-1,-1,-1,-1,-1,-1,-1,-1,-1,-1,-1,-1,-1,-1,-1,-1,-1,-1,-1,-1,-1,-1,-1,-1,-1,-1,-1,-1,-1,-1,-1,-1,-1,-1,-1,-1,-1,-1,-1,-1,-1,-1,-1,-1,-1,-1,-1,-1,-1,-1,-1,-1,-1,-1,-1,-1,-1,-1,-1,-1,-1,-1,-1,-1,-1,-1,-1,-1,-1,-1,-1,-1,-1,-1,-1,-1,-1,-1,-1,-1,-1,-1,-1,-1,-1,-1,-1,-1,-1,-1,-1,-1,-1,-1,-1,-1,-1,-1,-1,-1,-1,-1,-1,-1,-1],"loss_changes":[1.4251306E3,6.528054E2,5.043767E2,1.7809286E2,2.7468958E2,2.8961444E2,6.495984E1,5.837874E1,5.585782E1,1.6562073E2,1.0019835E2,5.3011597E1,2.226223E2,4.5250595E1,2.2683472E1,4.2400124E1,2.2509392E1,5.7549374E1,1.9696136E1,1.5559119E2,6.495512E1,1.2632561E1,5.948164E1,1.3311905E1,4.4322876E1,3.4957214E1,1.5667511E2,2.0519547E1,3.681707E1,0E0,1.3290283E1,2.4471195E1,2.2060944E1,1.8955038E1,1.2981617E1,1.5329285E1,2.9954735E1,1.3808197E1,9.574171E0,8.234192E1,5.0295082E1,1.3333839E1,4.2611977E1,0E0,1.1817352E1,3.7216064E1,6.693303E1,5.5878143E0,0E0,2.409526E1,6.917316E1,2.9558167E1,1.5444641E1,1.3471332E2,5.536052E1,1.5374832E1,0E0,0E0,2.1539602E1,3.5766796E1,8.355103E0,1.9163815E1,1.5001509E1,0E0,1.5643307E1,1.1443356E1,1.5978397E1,0E0,0E0,0E0,0E0,1.9268444E1,1.7194328E1,9.6292114E-1,0E0,0E0,0E0,5.507068E1,6.107797E1,1.3257675E0,3.1868155E1,5.971363E0,1.1700841E1,1.9849483E1,4.8147358E1,6.4613113E0,0E0,1.3031643E1,2.9897465E1,4.1786575E1,8.383537E1,4.21402E0,5.835186E0,8.725525E0,0E0,4.2944805E1,3.8804718E1,2.4714993E1,0E0,1.0112946E1,0E0,7.069198E1,9.843688E1,5.297458E1,2.0526299E1,3.4739136E1,1.648761E1,0E0,1.0165188E1,0E0,1.7020317E1,1.3536804E1,4.050659E0,0E0,1.5812111E1,0E0,0E0,0E0,0E0,0E0,0E0,1.3832535E1,1.2186712E1,0E0,1.2049128E1,3.6259003E0,2.0219124E1,6.516113E-1,6.5725937E0,4.8350952E1,2.6411285E1,3.688495E1,1.8014221E1,0E0,0E0,2.474489E1,2.5175064E1,0E0,1.45412445E1,0E0,0E0,2.6300812E-1,0E0,3.2862427E1,2.2281534E1,6.5066843E0,4.054306E0,0E0,0E0,1.310009E1,2.3510601E1,4.5778168E1,3.740351E1,3.1722383E1,2.9126225E1,7.814026E-1,0E0,0E0,0E0,5.0377655E0,7.2657623E0,3.421801E1,3.668932E1,3.5244137E1,2.1679214E1,2.2693314E1,2.63558E1,3.387909E0,7.4467845E0,8.4428505E1,2.1477524E1,4.393564E1,2.3331715E1,4.1479324E1,4.0991577E1,1.3956585E0,3.6484676E1,1.638953E1,1.4371254E1,1.7804688E1,0E0,0E0,9.085783E0,1.9755135E0,0E0,9.492823E0,1.1149597E1,4.032715E0,0E0,4.1122E0,0E0,2.8324661E0,0E0,0E0,0E0,0E0,0E0,9.6829987E-1,1.42133255E1,0E0,0E0,0E0,0E0,1.0948048E1,0E0,2.0156883E1,5.0733154E1,2.1309868E1,0E0,0E0,2.414521E1,6.0446434E0,1.065568E1,2.8565807E1,4.1372997E1,1.4305666E1,0E0,4.577217E-1,1.0520892E1,0E0,0E0,3.624669E1,1.9206781E0,0E0,1.3981161E1,0E0,0E0,8.349457E-1,0E0,9.9578705E0,0E0,1.4926628E1,1.1301792E1,1.8033371E1,3.0534683E1,0E0,2.3403046E1,1.7573082E1,2.41128E1,1.9438179E1,7.497116E0,0E0,7.6600647E-1,4.180008E0,5.491836E0,0E0,0E0,1.8710333E1,2.7491543E1,4.3491623E1,3.692828E1,1.093371E1,1.3830519E0,1.1448599E1,1.6598969E1,3.577655E1,9.259338E0,0E0,1.481595E1,5.161743E-1,8.766943E0,0E0,0E0,4.678407E1,1.3086792E1,0E0,1.2433029E1,3.7480747E1,3.381726E1,0E0,1.1619366E1,3.191988E1,4.2381344E1,2.0289755E0,2.5104614E1,0E0,0E0,2.4300938E0,0E0,6.353138E0,0E0,0E0,0E0,2.0802282E1,7.0355377E0,0E0,7.417286E0,0E0,0E0,0E0,0E0,8.08017E0,0E0,0E0,3.7265625E0,0E0,0E0,0E0,0E0,0E0,0E0,0E0,0E0,0E0,0E0,0E0,0E0,0E0,0E0,0E0,0E0,0E0,0E0,0E0,0E0,0E0,0E0,0E0,0E0,0E0,0E0,0E0,0E0,0E0,0E0,0E0,0E0,0E0,0E0,0E0,0E0,0E0,0E0,0E0,0E0,0E0,0E0,0E0,0E0,0E0,0E0,0E0,0E0,0E0,0E0,0E0,0E0,0E0,0E0,0E0,0E0,0E0,0E0,0E0,0E0,0E0,0E0,0E0,0E0,0E0,0E0,0E0,0E0,0E0,0E0,0E0,0E0,0E0,0E0,0E0,0E0,0E0,0E0,0E0,0E0,0E0,0E0,0E0,0E0,0E0,0E0,0E0,0E0,0E0,0E0,0E0,0E0,0E0,0E0,0E0,0E0,0E0,0E0,0E0,0E0,0E0,0E0,0E0,0E0,0E0,0E0,0E0,0E0,0E0,0E0,0E0,0E0,0E0,0E0,0E0,0E0,0E0,0E0,0E0,0E0,0E0,0E0,0E0,0E0,0E0,0E0],"parents":[2147483647,0,0,1,1,2,2,3,3,4,4,5,5,6,6,7,7,8,8,9,9,10,10,11,11,12,12,13,13,14,14,15,15,16,16,17,17,18,18,19,19,20,20,21,21,22,22,23,23,24,24,25,25,26,26,27,27,28,28,30,30,31,31,32,32,33,33,34,34,35,35,36,36,37,37,38,38,39,39,40,40,41,41,42,42,44,44,45,45,46,46,47,47,49,49,50,50,51,51,52,52,53,53,54,54,55,55,58,58,59,59,60,60,61,61,62,62,64,64,65,65,66,66,71,71,72,72,73,73,77,77,78,78,79,79,80,80,81,81,82,82,83,83,84,84,85,85,87,87,88,88,89,89,90,90,91,91,92,92,93,93,95,95,96,96,97,97,99,99,101,101,102,102,103,103,104,104,105,105,106,106,108,108,110,110,111,111,112,112,114,114,121,121,122,122,124,124,125,125,126,126,127,127,128,128,129,129,130,130,131,131,132,132,135,135,136,136,138,138,141,141,143,143,144,144,145,145,146,146,149,149,150,150,151,151,152,152,153,153,154,154,155,155,159,159,160,160,161,161,162,162,163,163,164,164,165,165,166,166,167,167,168,168,169,169,170,170,171,171,172,172,173,173,174,174,175,175,176,176,177,177,178,178,179,179,182,182,183,183,185,185,186,186,187,187,189,189,191,191,197,197,198,198,203,203,205,205,206,206,207,207,210,210,211,211,212,212,213,213,214,214,215,215,217,217,218,218,221,221,222,222,224,224,227,227,229,229,231,231,232,232,233,233,234,234,236,236,237,237,238,238,239,239,240,240,242,242,243,243,244,244,247,247,248,248,249,249,250,250,251,251,252,252,253,253,254,254,255,255,256,256,258,258,259,259,260,260,263,263,264,264,266,266,267,267,268,268,270,270,271,271,272,272,273,273,274,274,277,277,279,279,283,283,284,284,286,286,291,291,294,294],"right_children":[2,4,6,8,10,12,14,16,18,20,22,24,26,28,30,32,34,36,38,40,42,44,46,48,50,52,54,56,58,-1,60,62,64,66,68,70,72,74,76,78,80,82,84,-1,86,88,90,92,-1,94,96,98,100,102,104,106,-1,-1,108,110,112,114,116,-1,118,120,122,-1,-1,-1,-1,124,126,128,-1,-1,-1,130,132,134,136,138,140,142,144,146,-1,148,150,152,154,156,158,160,-1,162,164,166,-1,168,-1,170,172,174,176,178,180,-1,182,-1,184,186,188,-1,190,-1,-1,-1,-1,-1,-1,192,194,-1,196,198,200,202,204,206,208,210,212,-1,-1,214,216,-1,218,-1,-1,220,-1,222,224,226,228,-1,-1,230,232,234,236,238,240,242,-1,-1,-1,244,246,248,250,252,254,256,258,260,262,264,266,268,270,272,274,276,278,280,282,284,-1,-1,286,288,-1,290,292,294,-1,296,-1,298,-1,-1,-1,-1,-1,300,302,-1,-1,-1,-1,304,-1,306,308,310,-1,-1,312,314,316,318,320,322,-1,324,326,-1,-1,328,330,-1,332,-1,-1,334,-1,336,-1,338,340,342,344,-1,346,348,350,352,354,-1,356,358,360,-1,-1,362,364,366,368,370,372,374,376,378,380,-1,382,384,386,-1,-1,388,390,-1,392,394,396,-1,398,400,402,404,406,-1,-1,408,-1,410,-1,-1,-1,412,414,-1,416,-1,-1,-1,-1,418,-1,-1,420,-1,-1,-1,-1,-1,-1,-1,-1,-1,-1,-1,-1,-1,-1,-1,-1,-1,-1,-1,-1,-1,-1,-1,-1,-1,-1,-1,-1,-1,-1,-1,-1,-1,-1,-1,-1,-1,-1,-1,-1,-1,-1,-1,-1,-1,-1,-1,-1,-1,-1,-1,-1,-1,-1,-1,-1,-1,-1,-1,-1,-1,-1,-1,-1,-1,-1,-1,-1,-1,-1,-1,-1,-1,-1,-1,-1,-1,-1,-1,-1,-1,-1,-1,-1,-1,-1,-1,-1,-1,-1,-1,-1,-1,-1,-1,-1,-1,-1,-1,-1,-1,-1,-1,-1,-1,-1,-1,-1,-1,-1,-1,-1,-1,-1,-1,-1,-1,-1,-1,-1,-1,-1,-1,-1,-1,-1],"split_conditions":[2.821278E-1,1.7285E1,1.0305E1,1.4289999E0,7.505E0,1.5426528E1,3.9499998E-1,1.2903261E1,8.204933E1,3.7482918E1,9.2681145E1,2.893E1,8.055E0,4.5216894E0,7.950159E1,3.011111E1,1.6619999E1,2.555E0,5.5E-2,1.81091E1,1.5184999E1,5E-2,1.07E1,6.1855003E1,7.0200005E0,1.4381203E2,6.37E0,3.7708006E0,3.44E1,-8.340785E-2,2.9500002E-1,8.299999E0,3.7370476E1,7.4145004E1,8.567035E1,1.23432495E2,1.325E1,2.7470001E1,4.63175E0,2.3498077E0,9.440631E1,1.2014999E1,9.9100975E1,-6.583193E-2,6.0425E1,1.85E-1,7.1825E1,2.936E1,-6.492436E-2,4.6025E1,6.7785E1,4.348E1,9.6235E1,4.3450003E0,2.2521805E1,6.9049997E0,-8.1402704E-2,-1.0338927E-1,4.7E-1,1.4780001E1,1.275E0,1.01380295E2,2.165E1,-1.08080864E-1,1.034885E2,7.8406525E0,1.45E-1,6.6173464E-2,-9.693784E-2,-1.029826E-1,6.628846E-2,1.3881616E2,2.1665E1,2.5895E1,-6.4357296E-2,6.6919655E-2,-8.493849E-2,1.1270793E2,9.3785346E-1,3.9595E1,1.0690148E0,6.55E0,3.15E0,8.336679E1,1.005E1,1E-2,-6.447181E-2,6.015E0,1.3033582E2,3.4095993E1,2.4506154E2,4.695E0,5.0497503E0,6.75E-1,-8.093829E-2,4.191578E-1,1.045E0,7.9799995E0,-9.624699E-2,8.08E0,-6.92025E-2,3.7355812E1,9.4715E1,4.087078E0,2.4763E1,8.55E-1,9.508919E0,-8.8553764E-2,1.065E0,-9.3970045E-2,2.017E1,8.47072E0,5.210745E0,-8.4891774E-2,4.1509614E0,6.898496E-2,-1.0072317E-1,9.35122E-2,-7.934794E-2,6.68696E-2,-9.003485E-2,1.4805E1,1.621E1,-9.561554E-2,7.309778E1,8.83E0,2.22E2,3.4E0,3.7174065E1,5.0699997E0,4.0311766E0,2.4235E1,1.1145E1,1.04900286E-1,3.392332E-2,1.3081416E2,3.2150002E0,1.0824674E-1,5.065E0,8.0995545E-2,-8.4110186E-2,1.14329544E2,-7.568694E-2,1.045E2,2.5715E1,1.406465E2,5.1925E1,5.2808605E-2,-1.0084733E-1,1.0827588E2,5.1465E1,1.965E0,3.059E1,6.84E0,8.680687E1,3.2846153E0,1.5848694E-2,6.8936616E-2,-6.3596234E-2,8.24E0,1.0146462E2,4.4300003E0,2.35E-1,7.608235E-1,6.989388E1,4.659375E-1,7.314167E0,2.58E0,6.675759E0,7.165E0,4.2185795E-1,3.2205E1,1.99E0,4.9950892E-1,9.411174E1,1.09E2,3.6486923E1,1.5225E1,2.4547682E0,4.0216792E-1,-7.5851426E-2,-7.0012264E-2,4.747E1,8.470308E0,-7.356404E-2,1.08862625E2,1.1600001E0,5.276903E0,1.4714447E-2,3.668535E1,-7.3120445E-2,1.323E1,-6.81313E-2,-8.715946E-2,7.817427E-2,-6.9404155E-2,8.533001E-2,6.04497E1,7.806546E1,8.76115E-2,-9.195204E-2,3.7547905E-2,1.0254797E-1,6.2627563E1,9.911363E-2,4.1549997E0,7.425E0,1.2896384E2,-9.752488E-2,9.6984155E-2,1.0729733E2,3.1455E1,1.0303753E2,3.5107894E0,3.5500002E-1,7.472998E1,-9.3073666E-2,9.3386925E1,1.7600002E1,1.0981361E-1,4.3049745E-2,3.0378601E1,1.10640305E2,-8.72053E-2,3.501619E1,-6.720928E-2,6.880914E-2,5.9350004E0,1.4401085E-2,4.639022E0,-6.9441065E-2,3.551611E1,3.05E-1,3.649975E1,7.382E1,-9.974679E-2,3E-1,8.5345E1,4.15E-1,7.295438E1,7.6108215E1,3.6152992E-2,1.8600002E1,1.6604023E1,1.09831924E2,6.648057E-2,-7.4093886E-2,1.369865E0,5.058E1,1.5088571E0,9.7550896E1,3.31E0,4.0775E1,4.974348E-1,1.95E-1,6.9849997E0,1.0678291E2,7.750518E-2,6.2105095E1,7.71E0,1.8600002E1,6.737911E-2,-7.486746E-2,4.0540062E1,3.268E1,-8.646901E-2,7.05E-1,3.710484E1,1.546E1,-8.395914E-2,1.2397E0,1.7143408E2,3.7413723E1,3.5500002E0,8.835E0,3.1613477E-2,1.04335964E-1,8.931142E1,-9.948223E-2,9.05E-1,-7.767086E-2,6.6905215E-2,-1.0220982E-1,1.6435E1,4.05E-1,-6.1281916E-2,5.1835E1,9.839749E-2,2.5307743E-2,-8.5316405E-2,6.608347E-2,5.9998478E1,-6.467738E-2,1.5082219E-2,1.1215332E2,1.0721221E-2,9.428978E-2,9.229906E-2,1.8128026E-2,3.5046123E-2,1.0461457E-1,8.975963E-2,-3.072789E-2,7.284502E-2,-7.63726E-2,-3.621593E-2,9.254457E-2,-4.5893457E-2,-9.039479E-2,5.8020614E-2,-8.786637E-2,-6.923084E-2,2.6163327E-2,5.7535847E-3,9.9626966E-2,-8.845544E-2,6.712964E-2,5.2248657E-2,-1.08430356E-1,-9.874181E-2,7.78416E-2,-7.455149E-2,6.8377115E-2,3.6708035E-2,1.020961E-1,-8.583429E-2,6.96483E-2,-2.895929E-2,-1.09051764E-1,9.932793E-2,2.1812756E-2,7.6283924E-2,-7.3164344E-2,3.4866817E-2,1.01488724E-1,8.811671E-2,-1.3218853E-2,6.654753E-2,-1.03603266E-1,-7.3098846E-2,6.425648E-2,-8.3222315E-2,6.593822E-2,-6.972064E-2,3.841156E-2,-8.692864E-2,6.265382E-2,-1.0666805E-1,6.8878E-2,2.272533E-2,-9.886494E-2,3.3505898E-2,-9.662898E-2,1.6382677E-2,9.76191E-2,1.0365564E-1,3.6990855E-2,2.900552E-2,9.600882E-2,-6.250425E-2,6.6173464E-2,-2.6541412E-2,8.3779186E-2,-1.1275016E-1,1.1495347E-2,-4.720204E-2,5.6737315E-2,-1.0000383E-1,5.0917417E-2,2.6676007E-2,-1.0688629E-1,2.4695287E-2,9.4904825E-2,6.608347E-2,-9.322258E-2,2.5372153E-2,7.625826E-2,5.8593232E-2,-7.47489E-2,-1.1322119E-2,8.6046554E-2,6.597678E-2,-1.0267924E-1,1.0262136E-1,3.87871E-2,-6.7241415E-2,8.2489066E-2,-2.970696E-2,8.077337E-2,-7.011675E-3,8.2344286E-2,6.8471104E-2,8.368354E-3,-6.1705224E-2,5.3931445E-2,-6.5364785E-2,1.7170852E-2,8.563885E-2,-6.519149E-2,-7.76487E-2,6.731116E-2,-3.9697852E-2,8.056605E-2,1.7062193E-2,9.345543E-2,-9.1760166E-2,4.8416883E-2,1.90971E-2,9.8750144E-2,1.2911715E-2,8.7920085E-2,-9.291101E-2,6.400375E-2,5.2440125E-2,9.879149E-2,9.018367E-2,-6.542042E-3,8.734379E-2,-7.355856E-3,9.865707E-2,5.8422532E-2],"split_indices":[6,37,25,4,25,57,38,23,9,22,21,46,45,19,21,10,30,45,38,23,34,61,41,34,45,7,27,58,30,0,27,23,22,9,7,12,23,30,2,4,21,45,3,0,34,38,30,30,0,34,46,34,46,62,23,39,0,0,62,25,36,7,10,0,7,2,27,0,0,0,0,7,34,34,0,0,0,9,57,46,4,23,19,12,39,38,0,45,7,55,3,26,2,61,0,6,25,27,0,39,0,22,46,19,10,36,2,0,26,0,25,23,19,0,19,0,0,0,0,0,0,45,30,0,9,34,3,19,22,34,19,46,45,0,0,21,25,0,59,0,0,21,0,46,30,7,46,0,0,3,37,39,30,39,9,23,0,0,0,27,7,39,27,6,12,6,23,36,2,26,4,46,26,6,21,7,22,25,2,6,0,0,46,2,0,9,36,23,0,22,0,45,0,0,0,0,0,9,12,0,0,0,0,12,0,34,41,7,0,0,3,37,3,19,27,9,0,7,2,0,0,10,7,0,10,0,0,34,0,19,0,22,38,22,37,0,36,34,38,9,12,0,2,55,3,0,0,57,34,4,3,39,30,4,38,26,21,0,9,45,2,0,0,10,37,0,38,22,39,0,4,7,22,26,27,0,0,9,0,41,0,0,0,45,27,0,34,0,0,0,0,55,0,0,3,0,0,0,0,0,0,0,0,0,0,0,0,0,0,0,0,0,0,0,0,0,0,0,0,0,0,0,0,0,0,0,0,0,0,0,0,0,0,0,0,0,0,0,0,0,0,0,0,0,0,0,0,0,0,0,0,0,0,0,0,0,0,0,0,0,0,0,0,0,0,0,0,0,0,0,0,0,0,0,0,0,0,0,0,0,0,0,0,0,0,0,0,0,0,0,0,0,0,0,0,0,0,0,0,0,0,0,0,0,0,0,0,0,0,0,0,0,0,0,0,0,0,0,0,0,0],"split_type":[0,0,0,0,0,0,0,0,0,0,0,0,0,0,0,0,0,0,0,0,0,0,0,0,0,0,0,0,0,0,0,0,0,0,0,0,0,0,0,0,0,0,0,0,0,0,0,0,0,0,0,0,0,0,0,0,0,0,0,0,0,0,0,0,0,0,0,0,0,0,0,0,0,0,0,0,0,0,0,0,0,0,0,0,0,0,0,0,0,0,0,0,0,0,0,0,0,0,0,0,0,0,0,0,0,0,0,0,0,0,0,0,0,0,0,0,0,0,0,0,0,0,0,0,0,0,0,0,0,0,0,0,0,0,0,0,0,0,0,0,0,0,0,0,0,0,0,0,0,0,0,0,0,0,0,0,0,0,0,0,0,0,0,0,0,0,0,0,0,0,0,0,0,0,0,0,0,0,0,0,0,0,0,0,0,0,0,0,0,0,0,0,0,0,0,0,0,0,0,0,0,0,0,0,0,0,0,0,0,0,0,0,0,0,0,0,0,0,0,0,0,0,0,0,0,0,0,0,0,0,0,0,0,0,0,0,0,0,0,0,0,0,0,0,0,0,0,0,0,0,0,0,0,0,0,0,0,0,0,0,0,0,0,0,0,0,0,0,0,0,0,0,0,0,0,0,0,0,0,0,0,0,0,0,0,0,0,0,0,0,0,0,0,0,0,0,0,0,0,0,0,0,0,0,0,0,0,0,0,0,0,0,0,0,0,0,0,0,0,0,0,0,0,0,0,0,0,0,0,0,0,0,0,0,0,0,0,0,0,0,0,0,0,0,0,0,0,0,0,0,0,0,0,0,0,0,0,0,0,0,0,0,0,0,0,0,0,0,0,0,0,0,0,0,0,0,0,0,0,0,0,0,0,0,0,0,0,0,0,0,0,0,0,0,0,0,0,0,0,0,0,0,0,0,0,0,0,0,0,0,0,0,0,0,0,0,0,0,0,0,0],"sum_hessian":[4.5482905E3,2.2172087E3,2.331082E3,3.5106387E2,1.8661449E3,1.6824982E3,6.485839E2,1.2404945E2,2.2701442E2,1.3784954E3,4.8764948E2,6.2000195E2,1.0624962E3,1.7769525E2,4.7088867E2,7.244824E1,5.1601215E1,7.827221E1,1.4874222E2,1.2190062E3,1.5948917E2,4.441608E1,4.432334E2,8.317059E1,5.3683136E2,1.7720717E2,8.85289E2,1.4212352E2,3.557174E1,1.9907281E0,4.6889795E2,3.1352467E1,4.109577E1,4.4070786E1,7.5304294E0,1.32151E1,6.5057106E1,1.4443825E2,4.3039665E0,1.1284277E3,9.057846E1,3.3432236E1,1.2605692E2,1.4870077E0,4.292907E1,7.855418E1,3.6467923E2,8.1922874E1,1.2477182E0,8.653015E1,4.503012E2,1.02695694E2,7.4511475E1,6.0759454E2,2.7769446E2,1.3939325E2,2.730267E0,1.0432063E1,2.5139675E1,2.7828766E1,4.4106918E2,2.1087564E1,1.0264902E1,3.546622E1,5.629553E0,6.031303E0,3.8039486E1,1.5650513E0,5.965378E0,1.1649462E1,1.5656389E0,1.2910717E1,5.2146393E1,1.4319273E2,1.24552E0,1.568673E0,2.7352934E0,1.0092239E3,1.1920385E2,1.6496727E1,7.408173E1,2.888118E1,4.5510554E0,1.3537798E1,1.1251913E2,4.168406E1,1.2450116E0,1.0517779E1,6.803639E1,2.4937843E2,1.15300804E2,7.9101395E1,2.8214843E0,8.404291E1,2.4872444E0,2.3370435E2,2.1659686E2,9.7717064E1,4.9786277E0,7.301644E1,1.495038E0,3.4120703E2,2.6638754E2,2.5246306E2,2.5231384E1,3.860887E1,1.0078438E2,3.9673605E0,2.1172316E1,4.4736004E0,2.3355165E1,5.879495E1,3.8227423E2,2.973641E0,1.8113924E1,1.5764331E0,8.688469E0,3.14705E0,2.4825027E0,1.568444E0,4.4628587E0,3.2986584E1,5.0529E0,6.2034883E0,6.707228E0,4.502678E1,7.119612E0,1.2840854E2,1.4784194E1,9.80613E2,2.8610926E1,9.6152954E1,2.305089E1,1.4169544E1,2.3271816E0,4.471026E1,2.9371479E1,1.5691949E1,1.3189231E1,1.5686325E0,2.9824228E0,1.1547082E1,1.9907167E0,8.828199E1,2.4237139E1,3.0668244E0,3.8617237E1,1.8267947E0,8.690985E0,4.4623642E1,2.3412754E1,2.1225566E2,3.7122772E1,5.710681E1,5.819399E1,7.653266E1,2.5687337E0,1.5762879E0,1.2451966E0,8.073304E1,3.3098686E0,5.1003742E1,1.8270059E2,1.9363369E1,1.9723349E2,8.149932E1,1.6217747E1,6.9702225E1,3.3142133E0,2.020636E2,1.3914343E2,2.3211572E2,3.4271816E1,8.963223E1,1.6283084E2,1.0218321E1,1.5013064E1,2.982536E1,8.783513E0,9.904268E1,1.7416964E0,1.4960486E0,1.9676266E1,2.1616213E1,1.7389526E0,4.295683E0,5.4499268E1,3.7970685E2,2.567378E0,1.6130613E1,1.9833117E0,3.1492785E1,1.4938005E0,3.4757242E0,1.5771756E0,1.7336777E0,4.9735503E0,2.8991755E1,1.6035027E1,3.1468198E0,3.9727924E0,2.0612524E0,1.2634728E2,5.3780074E0,9.406187E0,1.6100273E1,9.645127E2,2.2146183E1,6.4647427E0,4.969914E0,9.1183044E1,1.7999136E1,5.051753E0,2.6803745E1,1.7906511E1,2.5387676E1,3.9838011E0,8.380441E0,4.8087907E0,9.464533E0,2.0825481E0,8.256147E1,5.7205215E0,3.4794931E0,2.0757647E1,1.4909271E0,1.5758972E0,3.6048573E1,2.5686643E0,4.3132793E1,1.4908464E0,1.0272942E1,1.31398115E1,1.6481607E1,1.9577405E2,7.457466E0,2.9665306E1,2.4163788E1,3.2943027E1,1.8602545E1,3.9591446E1,2.0636234E0,7.446904E1,7.7924034E1,2.8090029E0,1.5665964E0,1.7432721E0,2.083066E1,3.0173082E1,6.3275448E1,1.1942515E2,1.2307743E1,7.055625E0,5.550448E0,1.9168304E2,3.022392E1,5.12754E1,5.20587E0,1.1011876E1,6.532478E1,4.3774395E0,1.570682E0,1.7435311E0,1.5239967E2,4.966392E1,2.7451816E0,1.3639825E2,4.122421E1,1.9089151E2,2.7408185E0,3.1530996E1,4.932052E1,4.031171E1,5.7227445E0,1.571081E2,2.327961E0,7.8903594E0,7.309065E0,7.7039995E0,2.7829977E1,1.9953824E0,1.5686071E0,7.2149057E0,1.1260318E1,8.778236E1,1.2397972E0,1.8436468E1,1.9301128E1,2.315085E0,2.7310987E0,1.564584E0,5.325748E1,1.2417848E0,2.5599337E0,3.771469E2,2.8138292E0,1.3316783E1,2.89245E1,2.568284E0,2.062578E0,2.6929176E1,1.1740196E1,4.29483E0,3.3890202E0,1.9889871E0,9.579065E0,6.521207E0,1.0697658E2,8.5753613E2,1.8661999E1,3.4841852E0,8.0894E1,1.0289043E1,3.0731895E0,1.4925946E1,3.4821413E0,1.5696118E0,4.163107E0,2.2640638E1,6.9665256E0,1.0939985E1,1.9886645E0,2.3399012E1,2.0640333E0,6.316407E0,3.2305365E0,1.5782541E0,4.431211E1,3.8249355E1,3.1439142E0,2.5766075E0,1.901444E1,1.7432052E0,2.0616972E0,3.3986874E1,3.9577972E1,3.5548217E0,1.566923E0,8.706018E0,1.7407695E0,1.1399042E1,2.732761E0,1.3748847E1,1.8648431E2,9.289742E0,3.4782286E0,2.6187077E1,2.2587677E1,1.5761098E0,2.6474426E1,6.4686E0,1.3881186E1,4.7213583E0,5.132769E0,3.4458675E1,7.240054E1,2.0684965E0,4.6280627E0,7.3295975E1,1.2439516E0,1.5650513E0,1.2195696E1,8.634965E0,2.1439266E1,8.733815E0,4.2511555E1,2.076389E1,5.239724E0,1.14185425E2,2.326477E0,9.981266E0,2.316424E0,4.739201E0,1.564584E0,3.9858637E0,2.8348513E1,1.6333453E2,2.0196985E1,1.0026936E1,3.5547137E0,4.7720684E1,1.5640213E0,9.447855E0,6.325193E1,2.0728548E0,1.2449208E0,3.1325185E0,1.3804541E2,1.4354258E1,6.6408753E0,4.3023045E1,1.2228953E2,1.4108724E1,1.508675E1,2.6137459E1,1.7136299E2,1.9528522E1,3.0283169E1,1.2478269E0,4.3869785E1,5.4507318E0,2.0241747E1,2.0069963E1,2.5611496E0,3.161595E0,1.5295201E2,4.156072E0,2.5685418E0,4.740523E0,5.379621E0,2.2450357E1,3.7351842E0,7.525134E0,1.8879642E1,6.890272E1,1.5125966E1,3.3105025E0,4.9952286E1,3.3051963E0,3.6345056E2,1.3696352E1],"tree_param":{"num_deleted":"0","num_feature":"63","num_nodes":"421","size_leaf_vector":"0"}},{"base_weights":[-1.0298418E-4,4.9126333E-1,-5.718769E-1,2.1147478E-1,1.2081058E0,1.281971E0,-8.186445E-1,1.0709771E0,3.979065E-2,6.7310625E-1,1.4086667E0,1.495653E0,7.0997024E-1,3.7481397E-1,-9.1748786E-1,1.4251736E0,7.10501E-1,-1.3421065E-1,8.5423845E-1,2.5488096E-1,1.063718E0,-1.3331698E0,1.4224526E0,1.6162838E0,1.0737797E0,9.055458E-1,-1.5121571E0,9.38785E-1,-2.2116472E-1,-1.0862516E0,-1.396649E-1,1.4877598E0,-1.3639871E0,2.739971E-1,1.19157E0,-5.862841E-1,1.6048187E-1,-9.8358226E-1,9.116427E-1,-1.2829981E0,5.003578E-1,-2.403286E-1,1.2853467E0,-1.2069614E0,1.4315335E0,4.0651074E-1,1.6341758E0,-1.8970639E-1,1.3103603E0,1.7750429E-1,1.2874861E0,-5.394286E-1,1.149971E0,-5.997701E-1,1.0661926E0,-1.2088083E0,-3.575902E-1,-5.2846587E-1,5.2015114E-1,1.5332521E0,5.185061E-1,-1.9614147E-1,1.0300686E0,1.3171428E0,-1.3715229E0,1.9251785E-1,-7.932116E-1,-3.085937E-1,3.519762E-1,-1.6323825E0,1.0968205E0,-9.046799E-1,9.660289E-1,-1.6966974E0,6.2034196E-1,7.642358E-2,1.1816123E0,9.395941E-1,-1.6306629E0,-1.223172E0,1.3542725E0,1.0990177E0,1.5265613E0,-1.4868213E0,9.7816354E-1,-9.780869E-1,1.4194266E0,1.1316382E0,-1.6254256E0,-1.7175569E-1,1.4169961E0,-1.6047037E0,1.162945E0,5.8973104E-1,1.5859882E0,5.3463215E-1,-1.135369E0,-1.2450768E-2,1.3175775E0,9.851883E-2,-1.2442089E0,5.3934354E-1,-7.121546E-1,-7.147117E-2,-9.941736E-1,-5.9683967E-1,7.528477E-1,1.5569416E0,2.0434716E-1,-1.2539494E0,1.2190785E0,9.4313604E-1,-6.883116E-1,1.2941841E0,-1.3587695E0,1.3820246E0,-3.112397E-2,-1.660625E0,3.5880223E-1,-8.915397E-1,3.2004812E-1,-7.13192E-1,3.345943E-1,-8.279669E-1,4.076753E-1,1.091024E0,-1.5814036E0,4.489994E-1,1.1670645E0,2.9757333E-1,-1.5568159E0,1.5270191E0,1.9862048E-1,-1.1153948E0,1.5179659E0,1.4042187E0,-1.0367948E0,-1.590614E0,1.2176139E0,1.5463537E0,6.106357E-1,3.059347E-1,1.600773E0,1.527086E0,2.6082107E-1,1.0656743E0,-1.2616351E0,1.4938797E0,2.4302036E-1,9.61021E-1,-7.4621046E-1,1.6950089E0,6.582401E-1,-1.4433241E0,1.1847857E0,-1.4267116E0,1.3690807E0,1.0896614E0,-1.1393892E0,2.583687E-1,1.5458325E0,-1.0058662E0,5.6129694E-1,-1.3739733E0,-9.147436E-1,1.0546663E0,-9.4741684E-1,6.698449E-1,-9.1786206E-1,-5.12454E-1,9.1287905E-1,-1.193531E0,1.2338564E0,-1.3185229E0,1.0380967E0,-1.4353308E-1,1.0009667E0,1.580004E0,2.7417073E-1,-1.1373312E0,1.2942196E0,-1.0447313E0,8.2381934E-1,-1.1744242E0,1.5053335E0,8.617468E-1,1.5129874E0,-1.1384071E0,1.0608187E0,-1.0849181E-1,9.849931E-1,-1.2075762E0,-5.278766E-1,1.3136224E0,-2.801761E-1,9.9464107E-1,-9.3062323E-1,-8.043628E-1,7.530018E-1,1.3752855E-1,-1.7885954E0,-1.6594639E0,4.373671E-1,-8.070994E-2,1.3927768E0,4.8065317E-1,1.3764428E0,5.065839E-1,-1.5018798E0,1.594404E0,5.7023895E-1,-1.3695621E0,1.081023E0,1.4507232E0,8.8571176E-2,-6.799556E-2,1.3841515E0,1.5574385E0,5.559638E-2,-1.4516888E0,1.5188651E0,1.1689508E0,-1.1869746E0,1.6837387E0,8.29844E-1,1.1469846E0,-1.243164E0,9.038585E-1,1.6221759E0,-1.1725918E0,1.1826682E0,1.1394885E0,-1.5004896E0,1.4137771E0,-1.0323809E0,-9.6830946E-1,1.4624633E0,-1.5788435E0,6.304503E-1,1.1964122E0,-1.564841E0,-1.3926873E0,9.1129375E-1,-1.0549196E0,-1.4792703E0,9.646455E-2,-1.1175365E0,3.484197E-1,1.5225284E0,1.2140374E0,-1.2811855E0,-1.3266643E0,1.1059341E0,-1.4422253E0,-5.184123E-1,-9.286055E-2,-1.7421902E0,-5.6943005E-1,1.2256222E0,1.0769557E0,-1.3639045E0,1.580179E0,3.3171263E-1,-1.6874524E0,1.0597929E0,1.429909E0,2.9159582E-1,1.3403847E0,-9.2339694E-1,-3.76842E-1,1.1879021E0,1.598782E0,3.6551884E-1,2.2143194E-1,1.5245303E0,-1.5776747E0,8.574021E-1,1.519286E0,-1.1080365E0,3.954798E-1,1.5961311E0,1.225408E0,-1.227042E0,3.67092E-1,1.5607932E0,-7.317482E-1,7.570239E-1,-7.246497E-1,1.2834961E0,-1.3984501E0,-2.3695642E-1,-7.33631E-1,3.8329864E-1,2.6343745E-1,1.57159E0,8.587163E-1,-1.1820714E0,1.5338432E0,-1.2781305E0,-3.8116717E-1,-1.5009341E0,4.3815064E-1,-1.7738999E0,9.0438026E-1,-1.4891689E0,-1.4188796E0,7.0496476E-1,2.9698324E-1,8.73383E-1,5.0884414E-1,-1.0985477E0,1.5498346E0,1.1329593E-1,1.0146788E0,-6.015618E-1,-1.4034118E-1,1.4159418E0,-1.4022876E0,7.1755326E-1,4.1943693E-1,1.3456447E0,3.7777862E-1,1.5176352E0,1.0663624E0,-1.0632102E0,-1.5998034E0,9.432816E-1,-1.2237672E0,1.4378256E0,1.5666753E0,1.6294022E-1,-1.1187881E0,1.0606248E0,3.9235047E-1,1.0701205E0,1.4209968E0,-4.2996634E-2,5.720644E-1,1.6821496E0,-1.1094002E-1,1.4376826E0,1.6350704E0,4.6452305E-1,-1.750627E0,6.1792177E-1,1.2475001E0,-2.9571953E-1,-2.1767028E-1,-1.2195315E0,-1.4958634E0,1.8339044E-1,9.5868284E-1,-4.4833416E-1,-1.254714E0,8.034536E-2,1.0225713E0,-9.1064966E-1,3.4906155E-1,1.6372947E0,-1.6630938E0,1.0669289E0,1.3532933E0,-1.0767831E0,7.16238E-1,-1.6458645E0,-7.960198E-1,6.1404717E-1,-3.6082903E-1,1.4766954E0,-1.4273323E0,1.1384774E0,1.4099566E0,-1.52296135E-2,1.5075812E0,2.7003852E-1,-1.4273793E0,9.2142797E-1,5.820137E-1,1.5114537E0,-1.6941477E0,8.175992E-1,-1.5481753E0,1.3541348E0,1.2470863E0,-1.0356755E0],"categories":[],"categories_nodes":[],"categories_segments":[],"categories_sizes":[],"default_left":[0,0,1,1,0,0,1,1,0,0,0,1,1,1,0,0,0,1,0,0,0,0,0,0,1,0,0,1,1,0,1,1,0,1,0,0,0,0,0,0,0,0,0,0,0,0,0,1,0,0,0,1,0,0,1,0,1,1,0,1,1,0,1,1,0,0,1,1,0,0,0,0,0,0,0,0,1,0,0,0,1,0,1,0,0,0,0,0,0,0,1,0,0,1,1,0,1,0,0,0,0,1,0,0,0,0,1,1,0,0,0,0,0,0,0,0,0,0,0,0,0,0,0,0,0,0,0,0,0,1,0,1,1,0,0,1,0,0,1,1,1,1,0,0,1,0,0,0,0,0,0,0,0,0,0,0,0,0,0,0,0,0,0,0,0,0,0,0,0,0,1,0,0,1,0,0,0,0,0,0,1,0,0,0,0,0,0,0,0,1,0,1,1,0,0,1,0,0,0,0,0,0,1,0,0,1,0,0,0,0,0,0,1,0,0,0,0,1,0,0,0,0,0,0,1,0,0,0,0,0,0,0,0,0,0,0,0,0,0,0,0,0,0,0,0,0,0,0,0,0,1,0,0,0,0,0,0,0,0,0,0,0,0,0,0,0,0,0,1,1,1,0,0,0,0,0,0,0,0,0,0,0,0,0,0,0,0,0,0,0,0,0,0,0,0,0,0,0,0,0,0,0,0,0,0,0,0,0,0,0,0,0,0,0,0,0,0,0,0,0,0,0,0,0,0,0,0,0,0,0,0,0,0,0,0,0,0,0,0,0,0,0,0,0,0,0,0,0,0,0,0,0,0,0,0,0,0,0,0,0,0,0,0,0,0,0,0,0,0,0,0,0,0,0,0,0,0,0,0,0,0,0,0,0,0],"id":3,"left_children":[1,3,5,7,9,11,13,15,17,19,21,23,25,27,29,31,33,35,37,39,41,-1,43,45,47,49,-1,51,53,55,57,59,-1,61,63,65,67,69,71,73,75,77,79,-1,81,-1,-1,83,85,87,89,91,93,95,97,99,101,103,105,107,109,111,113,115,-1,117,119,121,123,-1,-1,125,127,-1,-1,129,131,133,-1,-1,135,137,139,-1,-1,-1,141,143,-1,145,147,-1,-1,149,151,153,155,157,159,161,163,165,167,169,171,173,175,177,-1,-1,-1,179,181,183,-1,185,187,-1,189,191,193,195,197,199,201,-1,-1,203,205,207,-1,209,211,-1,-1,213,-1,-1,215,217,219,221,223,-1,225,-1,-1,227,-1,229,231,-1,233,-1,235,237,-1,-1,-1,-1,-1,239,241,243,245,247,249,251,253,255,257,259,261,263,265,267,269,271,-1,-1,273,275,277,-1,279,281,283,-1,-1,285,287,289,291,293,295,297,299,301,303,305,-1,-1,307,309,311,313,315,317,-1,-1,-1,-1,319,321,323,325,327,329,331,-1,-1,-1,-1,-1,333,-1,-1,335,337,-1,339,-1,-1,-1,-1,-1,341,343,-1,-1,-1,-1,345,347,349,351,353,355,357,-1,359,-1,361,363,365,367,-1,369,371,373,375,-1,-1,-1,-1,-1,-1,377,379,381,383,-1,-1,-1,-1,-1,-1,-1,-1,-1,-1,-1,-1,-1,-1,-1,-1,-1,-1,-1,-1,-1,-1,-1,-1,-1,-1,-1,-1,-1,-1,-1,-1,-1,-1,-1,-1,-1,-1,-1,-1,-1,-1,-1,-1,-1,-1,-1,-1,-1,-1,-1,-1,-1,-1,-1,-1,-1,-1,-1,-1,-1,-1,-1,-1,-1,-1,-1,-1,-1,-1,-1,-1,-1,-1,-1,-1,-1,-1,-1,-1,-1,-1,-1,-1,-1,-1,-1,-1,-1,-1,-1,-1,-1,-1,-1,-1,-1,-1,-1,-1,-1,-1,-1,-1,-1,-1,-1,-1,-1,-1,-1,-1,-1,-1],"loss_changes":[1.2697715E3,4.872542E2,9.566426E2,2.581223E2,7.224829E1,2.8978546E1,2.1788269E2,3.6173126E1,2.0691669E2,3.0427727E1,2.0615967E1,7.3245544E0,3.1246609E1,4.785441E1,2.2344165E2,2.7499207E1,3.0402435E1,1.603958E2,2.8011917E1,3.5398148E1,2.8300285E1,0E0,1.3505493E1,2.2894897E0,1.29721985E1,1.7515526E1,0E0,2.3417198E1,3.4627E1,1.2454675E2,7.847478E1,5.5184326E0,0E0,2.7935034E1,2.4116104E1,7.670996E1,6.561008E1,1.2947401E1,2.5545425E1,1.1252136E1,2.3046806E1,2.5994558E1,1.5996872E1,0E0,1.3869019E1,0E0,0E0,1.2947201E1,1.0368427E1,4.160664E1,8.123085E0,1.9655365E1,1.4750984E1,3.373551E1,4.411091E0,5.554712E1,6.491616E1,4.085578E1,2.9957216E1,3.9712524E0,1.1375661E1,2.809453E1,2.0732788E1,5.868042E0,0E0,3.1573755E1,4.139183E1,5.5388542E1,3.44001E1,0E0,0E0,1.2229019E1,2.4731293E1,0E0,0E0,1.868597E1,1.0107067E1,1.203425E1,0E0,0E0,1.1152725E1,3.7958572E1,5.946106E0,0E0,0E0,0E0,6.527321E0,5.0105E0,0E0,7.1311407E0,3.1032639E0,0E0,0E0,1.5447166E1,2.4768677E0,2.507231E1,2.9211628E1,6.2765875E0,2.780693E0,1.7175186E1,4.8596436E1,4.5481064E1,4.2080917E1,4.3066986E1,4.3742744E1,2.512109E1,2.113823E1,3.5226135E0,0E0,0E0,0E0,1.2565556E1,1.9594017E1,1.6149982E1,0E0,3.0265198E0,6.0866218E0,0E0,2.7341629E1,3.9049408E1,1.8981817E1,4.93518E1,3.9927933E1,2.2220505E1,3.1143814E1,0E0,0E0,3.493293E1,2.439244E1,1.7788807E1,0E0,5.4395294E-1,1.4103111E1,0E0,0E0,4.763733E0,0E0,0E0,2.3372452E1,6.050659E0,2.0359035E1,9.250862E0,4.9900818E-1,0E0,9.57061E0,0E0,0E0,1.247467E0,0E0,1.2582949E1,1.169649E1,0E0,8.318712E0,0E0,9.918928E0,1.1621834E1,0E0,0E0,0E0,0E0,0E0,1.4127588E1,1.7371399E1,2.6478027E1,6.829053E1,1.3871979E1,1.2716253E1,1.842416E1,2.5933708E1,3.5139362E1,1.4940014E1,3.5455063E1,2.0713654E0,1.442901E1,1.549809E0,2.593231E1,1.952192E1,2.4064636E0,0E0,0E0,2.988737E0,3.0314484E1,1.1342452E1,0E0,1.9743156E0,1.2976526E1,2.1359253E0,0E0,0E0,2.9791494E1,2.1278957E1,3.3753265E1,3.0715328E1,2.818039E0,2.1847681E1,2.060176E1,3.5840157E1,2.806554E1,2.2004509E1,1.2256158E1,0E0,0E0,2.9694473E1,2.7896507E1,4.8670883E0,2.5046871E1,8.169479E0,1.7642643E1,0E0,0E0,0E0,0E0,5.5536413E-1,4.9665375E0,5.4075713E0,2.230114E1,1.5239853E1,4.492676E0,5.6460133E0,0E0,0E0,0E0,0E0,0E0,9.0218544E-2,0E0,0E0,4.3020864E0,8.1295013E-1,0E0,7.398884E0,0E0,0E0,0E0,0E0,0E0,1.4789963E0,1.3120514E1,0E0,0E0,0E0,0E0,8.717499E0,2.8756851E1,1.75177E1,2.6951855E1,4.5623077E1,1.677466E1,2.9195023E0,0E0,1.4228395E1,0E0,1.0381987E1,2.5142326E1,2.371044E1,2.2431345E1,0E0,1.0468012E1,5.8968086E0,1.9179912E0,1.3234421E1,0E0,0E0,0E0,0E0,0E0,0E0,1.2693024E-1,2.0949493E1,2.157424E1,9.9049225E0,0E0,0E0,0E0,0E0,0E0,0E0,0E0,0E0,0E0,0E0,0E0,0E0,0E0,0E0,0E0,0E0,0E0,0E0,0E0,0E0,0E0,0E0,0E0,0E0,0E0,0E0,0E0,0E0,0E0,0E0,0E0,0E0,0E0,0E0,0E0,0E0,0E0,0E0,0E0,0E0,0E0,0E0,0E0,0E0,0E0,0E0,0E0,0E0,0E0,0E0,0E0,0E0,0E0,0E0,0E0,0E0,0E0,0E0,0E0,0E0,0E0,0E0,0E0,0E0,0E0,0E0,0E0,0E0,0E0,0E0,0E0,0E0,0E0,0E0,0E0,0E0,0E0,0E0,0E0,0E0,0E0,0E0,0E0,0E0,0E0,0E0,0E0,0E0,0E0,0E0,0E0,0E0,0E0,0E0,0E0,0E0,0E0,0E0,0E0,0E0,0E0,0E0,0E0,0E0,0E0,0E0,0E0,0E0,0E0,0E0,0E0,0E0,0E0,0E0],"parents":[2147483647,0,0,1,1,2,2,3,3,4,4,5,5,6,6,7,7,8,8,9,9,10,10,11,11,12,12,13,13,14,14,15,15,16,16,17,17,18,18,19,19,20,20,22,22,23,23,24,24,25,25,27,27,28,28,29,29,30,30,31,31,33,33,34,34,35,35,36,36,37,37,38,38,39,39,40,40,41,41,42,42,44,44,47,47,48,48,49,49,50,50,51,51,52,52,53,53,54,54,55,55,56,56,57,57,58,58,59,59,60,60,61,61,62,62,63,63,65,65,66,66,67,67,68,68,71,71,72,72,75,75,76,76,77,77,80,80,81,81,82,82,86,86,87,87,89,89,90,90,93,93,94,94,95,95,96,96,97,97,98,98,99,99,100,100,101,101,102,102,103,103,104,104,105,105,106,106,107,107,111,111,112,112,113,113,115,115,116,116,118,118,119,119,120,120,121,121,122,122,123,123,124,124,127,127,128,128,129,129,131,131,132,132,135,135,138,138,139,139,140,140,141,141,142,142,144,144,147,147,149,149,150,150,152,152,154,154,155,155,161,161,162,162,163,163,164,164,165,165,166,166,167,167,168,168,169,169,170,170,171,171,172,172,173,173,174,174,175,175,176,176,177,177,180,180,181,181,182,182,184,184,185,185,186,186,189,189,190,190,191,191,192,192,193,193,194,194,195,195,196,196,197,197,198,198,199,199,202,202,203,203,204,204,205,205,206,206,207,207,212,212,213,213,214,214,215,215,216,216,217,217,218,218,224,224,227,227,228,228,230,230,236,236,237,237,242,242,243,243,244,244,245,245,246,246,247,247,248,248,250,250,252,252,253,253,254,254,255,255,257,257,258,258,259,259,260,260,267,267,268,268,269,269,270,270],"right_children":[2,4,6,8,10,12,14,16,18,20,22,24,26,28,30,32,34,36,38,40,42,-1,44,46,48,50,-1,52,54,56,58,60,-1,62,64,66,68,70,72,74,76,78,80,-1,82,-1,-1,84,86,88,90,92,94,96,98,100,102,104,106,108,110,112,114,116,-1,118,120,122,124,-1,-1,126,128,-1,-1,130,132,134,-1,-1,136,138,140,-1,-1,-1,142,144,-1,146,148,-1,-1,150,152,154,156,158,160,162,164,166,168,170,172,174,176,178,-1,-1,-1,180,182,184,-1,186,188,-1,190,192,194,196,198,200,202,-1,-1,204,206,208,-1,210,212,-1,-1,214,-1,-1,216,218,220,222,224,-1,226,-1,-1,228,-1,230,232,-1,234,-1,236,238,-1,-1,-1,-1,-1,240,242,244,246,248,250,252,254,256,258,260,262,264,266,268,270,272,-1,-1,274,276,278,-1,280,282,284,-1,-1,286,288,290,292,294,296,298,300,302,304,306,-1,-1,308,310,312,314,316,318,-1,-1,-1,-1,320,322,324,326,328,330,332,-1,-1,-1,-1,-1,334,-1,-1,336,338,-1,340,-1,-1,-1,-1,-1,342,344,-1,-1,-1,-1,346,348,350,352,354,356,358,-1,360,-1,362,364,366,368,-1,370,372,374,376,-1,-1,-1,-1,-1,-1,378,380,382,384,-1,-1,-1,-1,-1,-1,-1,-1,-1,-1,-1,-1,-1,-1,-1,-1,-1,-1,-1,-1,-1,-1,-1,-1,-1,-1,-1,-1,-1,-1,-1,-1,-1,-1,-1,-1,-1,-1,-1,-1,-1,-1,-1,-1,-1,-1,-1,-1,-1,-1,-1,-1,-1,-1,-1,-1,-1,-1,-1,-1,-1,-1,-1,-1,-1,-1,-1,-1,-1,-1,-1,-1,-1,-1,-1,-1,-1,-1,-1,-1,-1,-1,-1,-1,-1,-1,-1,-1,-1,-1,-1,-1,-1,-1,-1,-1,-1,-1,-1,-1,-1,-1,-1,-1,-1,-1,-1,-1,-1,-1,-1,-1,-1,-1],"split_conditions":[1.0217391E0,1.0305E1,7.5E-2,7.605E0,3.9499998E-1,2.1725E1,9.549464E1,4.13E0,8.4925E1,3.6625E1,7.950159E1,1.567E1,6.0000002E-2,9.181389E0,1.685E0,4.7004997E1,1.26874176E2,5.848333E-1,5.1043716E1,3.9697528E-1,3.4899998E0,-7.9990186E-2,8.93775E1,2.3E-1,9.635083E1,8.515393E1,-9.072942E-2,7.31397E1,7.834145E1,2.9155E1,4.8900003E0,2.9850001E0,-8.1839226E-2,1.4540652E2,4.4895E1,1.2052864E2,4.1806817E-1,9.98156E1,2.8152174E-1,2.3000002E0,4.9113968E1,7.55E-1,-4.7806563E0,-7.2417684E-2,1.657E1,2.4390643E-2,9.805054E-2,1.3614417E2,1.080745E2,1.2205E1,1.1232292E2,1.6654E4,6.9645836E1,9.559851E1,8.054E3,6.316136E1,4.917946E1,5.8059395E1,2.6439999E1,3.01E0,5.098363E-1,1.0057056E2,4.02E0,4.035E0,-8.229137E-2,-4.6026785E-2,1.894009E2,2.1550002E0,8.052058E1,-9.794295E-2,6.580923E-2,4.3E-1,5.975E0,-1.0180184E-1,3.7220515E-2,4.37085E1,1.3505E1,8.3392204E1,-9.783977E-2,-7.339031E-2,1.284E1,1.08E0,1.1257969E2,-8.920927E-2,5.868981E-2,-5.8685213E-2,8.0945625E1,6.1472855E1,-9.752553E-2,9.536743E-7,1.0596222E2,-9.628222E-2,6.97767E-2,1.49215E4,3.085E0,6.460272E1,6.8535E1,9.525284E1,3.6536052E3,1.0817363E2,9.0659134E1,8.386559E0,8.62E0,2.5349998E0,1.1906259E2,1.5699999E0,4.8891747E1,9.6235E1,1.2260829E-2,-7.523696E-2,7.314471E-2,8.156514E1,9.969772E1,5.205E0,-8.152617E-2,9.701791E1,2.066765E0,-9.963749E-2,9.842824E1,1.2064556E2,3.289E1,1.1585E1,1.21158844E2,1.5E-1,6.210299E1,6.546144E-2,-9.488422E-2,1.2342E2,4.0933117E-1,1.1200001E1,-9.340895E-2,-2.3068182E-1,5.9260002E1,-6.6923685E-2,9.107795E-2,7.860939E1,-6.2207684E-2,-9.5436834E-2,5.5E-2,2.753196E2,5.56E0,8.200001E0,1.868E1,9.162516E-2,1.1692929E2,6.394046E-2,-7.56981E-2,2.875E1,1.4581221E-2,9.563109E1,8.927687E1,1.0170053E-1,1.0291101E2,-8.659945E-2,9.44425E1,2.6100001E0,8.214484E-2,6.537968E-2,-6.8363346E-2,1.5502121E-2,9.2749946E-2,3.5208344E1,5.871495E1,1.965E0,2.0515E1,8.9471146E1,6.1195793E1,6.731333E1,7.7844025E1,1.1113393E1,9.783E3,1.00330605E2,2.6324999E1,9.801289E1,9.6828E1,-5.05E-1,3.5550003E1,1.16051254E2,1.6450243E-2,-6.8239875E-2,1.06E0,6.01E0,1.6E-1,-7.0465446E-2,9.377182E1,9.6239624E1,3.2780083E1,-6.830443E-2,6.364912E-2,1.4298111E2,1.0625096E2,1.8117832E0,1.0996E2,7.7521965E1,1.485E0,5.1E-1,3.957669E-1,1.0013472E2,1.25E0,1.0780137E2,-1.0731573E-1,-9.956783E-2,6.145E0,2.33025E0,4.95E-1,1.0840082E0,9.3487E1,7.0706894E1,-9.011278E-2,9.566424E-2,3.4214336E-2,-8.217373E-2,5.3378046E-2,6.1E-1,1.0175634E2,8.2265E1,3.005E0,2.1511E4,3.9259232E2,-8.7101325E-2,9.11319E-2,7.013705E-2,-7.1218476E-2,1.0102432E-1,1.21E2,6.8819076E-2,-7.458983E-2,8.144417E1,8.802141E1,-7.0355505E-2,8.929927E1,6.836931E-2,-9.0029374E-2,8.4826626E-2,-6.1942857E-2,-5.8098566E-2,3.4120003E1,5.1E2,3.782702E-2,7.178473E-2,-9.389046E-2,-8.3561234E-2,1.0982265E2,1.4434999E1,7.9925E1,1.0608256E2,1.5465883E2,6.89548E1,9.753E1,7.284224E-2,3.0264287E0,-7.959986E-2,7.358278E1,1.03E2,9.891725E1,6.8104996E1,-1.04531415E-1,1.0627519E2,1.7255001E1,9.612787E1,1.7787787E2,9.481074E-2,1.9902758E-2,-1.0124715E-1,6.358757E-2,8.579454E-2,1.749575E-2,-4.1345835E0,1.1114459E2,6.7349997E0,-1.1359286E0,9.592692E-2,2.193113E-2,1.3285916E-2,9.147181E-2,-9.466048E-2,5.1444124E-2,9.115716E-2,-6.648219E-2,2.3728788E-2,9.576786E-2,7.3524475E-2,-7.362252E-2,2.202552E-2,9.3647584E-2,-4.3904893E-2,4.5421433E-2,-4.3478984E-2,7.700977E-2,-8.390701E-2,-1.4217385E-2,-4.401786E-2,2.2997918E-2,1.5806247E-2,9.42954E-2,5.1522978E-2,-7.092428E-2,9.2030585E-2,-7.668783E-2,-2.287003E-2,-9.005605E-2,2.6289038E-2,-1.06433995E-1,5.4262813E-2,-8.9350134E-2,-8.513278E-2,4.2297885E-2,1.7818995E-2,5.2402977E-2,3.0530648E-2,-6.591286E-2,9.299008E-2,6.7977556E-3,6.0880728E-2,-3.6093708E-2,-8.42047E-3,8.495651E-2,-8.413725E-2,4.3053195E-2,2.5166215E-2,8.073868E-2,2.2666717E-2,9.105811E-2,6.398174E-2,-6.3792616E-2,-9.598821E-2,5.6596894E-2,-7.342603E-2,8.6269535E-2,9.400052E-2,9.7764125E-3,-6.712729E-2,6.363749E-2,2.3541028E-2,6.4207226E-2,8.52598E-2,-2.579798E-3,3.4323864E-2,1.0092898E-1,-6.656401E-3,8.626096E-2,9.810422E-2,2.7871381E-2,-1.0503762E-1,3.7075303E-2,7.485E-2,-1.7743172E-2,-1.3060216E-2,-7.317189E-2,-8.97518E-2,1.1003426E-2,5.7520967E-2,-2.690005E-2,-7.528284E-2,4.8207217E-3,6.135428E-2,-5.4638978E-2,2.0943692E-2,9.823768E-2,-9.9785626E-2,6.401573E-2,8.11976E-2,-6.460698E-2,4.2974282E-2,-9.8751865E-2,-4.7761187E-2,3.684283E-2,-2.164974E-2,8.860172E-2,-8.563994E-2,6.8308644E-2,8.4597394E-2,-9.137768E-4,9.045487E-2,1.620231E-2,-8.5642755E-2,5.5285677E-2,3.4920823E-2,9.068722E-2,-1.0164886E-1,4.905595E-2,-9.2890516E-2,8.124809E-2,7.4825175E-2,-6.214053E-2],"split_indices":[6,25,47,45,38,37,21,45,46,34,21,34,44,11,47,34,21,58,5,6,41,0,14,37,14,9,0,9,12,25,25,28,0,7,34,56,6,14,6,47,16,60,1,0,25,0,0,7,3,34,21,50,5,14,50,12,5,5,34,47,1,7,28,26,0,1,7,26,53,0,0,47,26,0,0,16,25,12,0,0,11,47,3,0,0,0,9,9,0,1,12,0,0,50,28,12,46,3,59,7,9,11,34,47,9,44,5,46,0,0,0,9,14,45,0,14,1,0,14,21,46,34,7,38,9,0,0,46,6,60,0,1,46,0,0,5,0,0,49,7,60,11,37,0,21,0,0,46,0,14,14,0,7,0,14,47,0,0,0,0,0,5,12,59,37,9,12,9,9,11,50,3,34,53,14,1,37,9,0,0,47,25,44,0,53,14,16,0,0,7,3,1,3,12,41,44,6,7,44,3,0,0,26,58,31,58,14,12,0,0,0,0,1,60,3,46,26,50,7,0,0,0,0,0,7,0,0,12,9,0,21,0,0,0,0,0,34,7,0,0,0,0,21,34,34,21,21,12,5,0,1,0,5,56,14,37,0,9,45,14,21,0,0,0,0,0,0,1,3,28,1,0,0,0,0,0,0,0,0,0,0,0,0,0,0,0,0,0,0,0,0,0,0,0,0,0,0,0,0,0,0,0,0,0,0,0,0,0,0,0,0,0,0,0,0,0,0,0,0,0,0,0,0,0,0,0,0,0,0,0,0,0,0,0,0,0,0,0,0,0,0,0,0,0,0,0,0,0,0,0,0,0,0,0,0,0,0,0,0,0,0,0,0,0,0,0,0,0,0,0,0,0,0,0,0,0,0,0,0,0,0,0,0,0,0],"split_type":[0,0,0,0,0,0,0,0,0,0,0,0,0,0,0,0,0,0,0,0,0,0,0,0,0,0,0,0,0,0,0,0,0,0,0,0,0,0,0,0,0,0,0,0,0,0,0,0,0,0,0,0,0,0,0,0,0,0,0,0,0,0,0,0,0,0,0,0,0,0,0,0,0,0,0,0,0,0,0,0,0,0,0,0,0,0,0,0,0,0,0,0,0,0,0,0,0,0,0,0,0,0,0,0,0,0,0,0,0,0,0,0,0,0,0,0,0,0,0,0,0,0,0,0,0,0,0,0,0,0,0,0,0,0,0,0,0,0,0,0,0,0,0,0,0,0,0,0,0,0,0,0,0,0,0,0,0,0,0,0,0,0,0,0,0,0,0,0,0,0,0,0,0,0,0,0,0,0,0,0,0,0,0,0,0,0,0,0,0,0,0,0,0,0,0,0,0,0,0,0,0,0,0,0,0,0,0,0,0,0,0,0,0,0,0,0,0,0,0,0,0,0,0,0,0,0,0,0,0,0,0,0,0,0,0,0,0,0,0,0,0,0,0,0,0,0,0,0,0,0,0,0,0,0,0,0,0,0,0,0,0,0,0,0,0,0,0,0,0,0,0,0,0,0,0,0,0,0,0,0,0,0,0,0,0,0,0,0,0,0,0,0,0,0,0,0,0,0,0,0,0,0,0,0,0,0,0,0,0,0,0,0,0,0,0,0,0,0,0,0,0,0,0,0,0,0,0,0,0,0,0,0,0,0,0,0,0,0,0,0,0,0,0,0,0,0,0,0,0,0,0,0,0,0,0,0,0,0,0,0,0,0,0,0,0,0,0,0,0,0,0,0,0,0,0,0,0,0,0,0,0,0,0,0,0],"sum_hessian":[4.5175566E3,2.4296904E3,2.0878665E3,1.7485244E3,6.811661E2,2.4477713E2,1.8430892E3,2.9024298E2,1.4582815E3,1.8691727E2,4.9424878E2,1.7702953E2,6.7747604E1,1.4075748E2,1.7023318E3,1.4490681E2,1.4533617E2,1.2022616E3,2.560199E2,9.106603E1,9.585124E1,1.9938302E0,4.9225494E2,1.3546373E2,4.1565804E1,6.2811844E1,4.935756E0,7.202524E1,6.873225E1,1.398503E3,3.0382877E2,1.4218295E2,2.7238605E0,7.7020355E1,6.83158E1,4.74052E2,7.282096E2,7.265856E0,2.4875403E2,1.1953352E1,7.911268E1,1.3911669E1,8.1939575E1,1.2401848E0,4.9101477E2,2.319957E0,1.3314377E2,6.58673E0,3.4979073E1,2.2117317E1,4.069453E1,8.809331E0,6.3215908E1,5.3524937E1,1.520731E1,1.1965852E3,2.0191776E2,1.9130191E2,1.1252685E2,1.3525291E2,6.93004E0,4.7946785E1,2.9073574E1,6.558856E1,2.7272465E0,9.952913E1,3.7452286E2,2.109253E2,5.172843E2,5.702737E0,1.5631189E0,6.7773833E0,2.4197664E2,9.908307E0,2.0450454E0,4.945178E1,2.9660904E1,7.7006345E0,6.211034E0,1.743392E0,8.019618E1,1.1192805E2,3.7908673E2,2.9912932E0,3.5954366E0,1.2287802E0,3.375029E1,1.4706683E1,7.4106336E0,3.290699E0,3.7403828E1,5.4538865E0,3.355444E0,2.8696373E1,3.4519535E1,1.7166971E1,3.6357964E1,3.053936E0,1.2153374E1,3.1500643E1,1.1650846E3,5.705807E1,1.4485968E2,9.713636E1,9.416555E1,1.9130697E1,9.339615E1,1.3271548E2,2.5374234E0,1.7394135E0,5.190626E0,1.4188018E1,3.3758766E1,2.6591764E1,2.4818096E0,6.255331E1,3.0352492E0,7.4554796E0,9.207365E1,3.4431094E2,3.0211927E1,1.2941055E2,8.151473E1,2.2692656E1,4.945916E2,1.5611707E0,5.2162127E0,6.86511E1,1.7332555E2,4.4274555E1,5.1772203E0,2.1539015E1,8.12189E0,1.4873797E0,6.213255E0,7.895954E1,1.2366366E0,4.2027326E0,1.0772531E2,3.7039453E2,8.692204E0,5.103165E0,2.8647127E1,9.5955925E0,5.111091E0,1.5514354E0,1.7392638E0,3.484907E1,2.5547595E0,2.2675072E1,6.0213003E0,3.0149603E1,4.3699303E0,3.9450402E0,1.3221932E1,3.2954678E1,3.4032876E0,1.5606979E0,1.4932381E0,2.5326471E0,9.620727E0,8.955494E0,2.2545149E1,8.335927E2,3.3149188E2,4.258753E1,1.4470543E1,1.8476063E1,1.2638362E2,6.741449E1,2.9721874E1,8.685806E1,7.3074875E0,1.3406444E1,5.724255E0,2.0338968E1,7.305718E1,1.3014398E2,2.571508E0,1.7252084E0,1.2462809E1,2.7569536E1,6.18923E0,1.7358146E0,2.485595E1,1.4103645E1,4.8449665E1,1.485911E0,1.5493383E0,5.319998E1,3.887367E1,1.8297679E2,1.6133415E2,1.0930199E1,1.9281729E1,1.4211391E1,